-0.868633,0.285687,-0.00937867,-0.281025,-0.239752,-0.224289,0.681914,0.39664,0.0914328,0.0394549,0.256505,-0.226626,-0.724389,0.99947,-0.579396,0.90313,-0.345492,-0.00797966,-0.191542,-0.722894,0.249737,-1.18424,0.166176,-0.924775,-0.709018,-0.364656,-0.0224788,-0.02157,0.709559,0.291463,-0.437719,-1.13964,-0.563703,-0.274999,-0.736136,0.246527,0.986939,0.64991,-0.592372,0.0241698,-1.21864,0.699482,0.757696,-1.12375,0.741206,-0.902701,-0.626065,0.680735,0.89705,-0.115428,-0.63306,0.306189,-0.346943,-0.156209,0.406464,-0.425648,0.252171,0.718716,0.721182,0.81219,-0.117258,0.402272,0.456953,-0.462216,0.820069,0.923337,-0.0765174,-0.330313,0.420141,1.14295,0.504391,0.881163,-0.411931,0.0876438,0.700455,-0.323072,0.784722,0.424558,-1.09674,0.408542,-0.71995,-0.730872,-0.161082,0.660556,0.145295,-0.631257,-0.458262,-0.413148,-0.733125,-1.23503,1.09655,0.418712,-0.0186207,0.234167,0.407343,-0.375315,-0.790147,-0.469941,0.787057,0.265845,-0.758558,0.687624,0.463943,-0.176355,-0.462271,-0.204116,0.673352,0.513971,-0.557846,0.520187,-0.290001,0.370285,-1.1516,0.49993,-0.672201,-1.15427,0.869018,-0.36281,-0.390095,0.98147,-0.11649,-0.727546,0.181802,-0.82058,0.137988,0.159457,-0.13498,-0.75695,0.586968,-0.791256,-1.00967,0.192738,-0.591916,0.98381,-1.07764,0.756836,-0.537423,0.520324,-0.629812,-0.13729,-0.0557448,0.0509634,1.31705,0.906199,-0.836604,-0.762139,-0.762326,-0.0777065,0.817115,-0.119421,-0.741081,0.482578,0.59726,0.746506,1.18151,-0.635843,-1.33828,-0.486304,0.429887,0.485842,-0.669809,0.454889,0.0222864,0.0564356,-0.386999,0.285317,-0.701009,-0.142033,-0.0638105,0.310858,0.284429,0.505568,0.708067,0.230041,0.93503,-0.961861,1.11099,0.316969,-0.0863131,0.0765755,0.147742,-0.0997549,-0.565201,0.769891,-0.298465,-0.419537,-0.554884,0.0244922,-0.000625705,0.97819,-1.60815,0.744463,0.135097,0.747319,-0.469219,1.22509,-1.30851,0.152525,-0.368816,0.704339,1.32574,-1.14017,0.241137,0.378401,0.982171,-0.501427,1.32643,0.563591,-0.901865,-0.0863634,-0.495299,-0.0946539,0.058653,-0.100246,-0.338228,-0.736191,-1.10854,0.269535,-0.0653859,1.53758,0.04735,0.777023,-0.342735,1.17923,-0.686302,-0.752067,1.16401,0.253011,0.711129,-0.923183,-0.707107,-0.0380379,-0.300922,-0.234005,-0.625485,-0.464306,0.831599,-0.550327,-1.51124,0.691387,0.163763,-0.319796,-1.11541,-0.529558,0.340541,-0.143636,-0.439012,-0.824075,-1.8003,0.641056,-0.478992,0.177779,-0.284851,-0.613527,0.0134255,-0.409879,-0.440488,-0.559721,0.751816,0.556959,-0.654283,0.73287,-0.762142,-0.0344501,-0.525397,-0.460684,-0.411104,-0.706793,-0.348506,0.108335,-1.24266,0.526524,0.50406,-0.690183,-1.10465,-0.182143,0.137758,0.114422,0.17716,-0.219715,-1.34864,0.790556,-1.13888,-0.523846,-1.21544,-0.444207,-0.242498,-0.687656,-0.081137,-0.0642269,-0.507219,0.727055,-0.582293,-0.131219,-0.235959,0.520661,-1.22871,-1.18793,-1.05468,-0.341617,0.462206,-0.361333,-0.251501,-0.450245,-0.127174,0.027317,-1.56753,-0.928177,-0.953166,0.663821,0.493389,-0.663835,0.268116,0.415489,0.0781839,0.652331,-0.867736,-0.696369,-0.924998,-1.19713,-0.593073,-0.466767,-0.81655,0.0301835,0.635699,0.141301,-0.603935,0.171224,0.092828,-0.00300163,-0.5452,-0.200103,0.512382,-1.22935,-0.936725,0.0312742,0.185494,-0.778001,-0.367061,0.309136,-0.54036,-0.348974,-0.782868,-1.09541,-0.844304,-1.31649,-1.27876,0.719361,0.0644016,-0.371052,-0.822365,-0.46364,0.0471976,0.148413,0.861201,-0.488303,-0.635433,-0.844377,-0.798681,0.373559,0.419494,-1.09092,-0.311083,-0.258109,-1.7137,-0.365635,-1.40502,0.270887,0.351407,0.660803,0.37782,-0.880923,-0.966625,-0.931035,-0.600517,0.113231,-0.622418,-0.333968,-0.149818,-0.0724963,0.383894,1.09154,-0.684021,-0.678345,-0.504201,-0.589922,0.718899,-0.0520273,0.00109969,-0.354114,-0.0906526,-0.298127,-0.304296,0.746221,-0.590434,-0.126809,-0.49474,-0.34419,-0.445844,-0.668485,-0.697016,-0.341431,-0.0806527,-0.277613,-0.515802,0.490173,-0.565048,1.07825,-0.946118,-1.71405,0.40421,0.467455,-1.06071,-1.2497,-0.48229,-0.467504,-0.461444,-0.922823,-1.40883,-0.939072,-0.0263741,-0.120523,0.0606237,-1.01596,-0.174661,0.34645,0.425814,0.470656,-0.603816,0.437729,-1.23925,0.115562,0.735437,0.648301,-1.01735,0.0124819,0.315334,-0.265869,-0.364481,0.951666,0.0945787,-1.408,-0.113055,-0.044661,-0.746474,-0.99942,-0.719878,-0.265739,-0.754724,-0.522459,0.120262,-0.863014,0.627453,-0.869714,-0.178374,-0.584485,-1.64125,-0.641981,-0.520651,-0.232958,0.269375,0.00554778,-0.857849,0.0791498,-0.403667,-0.804829,-0.828789,-0.976565,0.238986,0.201814,-1.42412,-0.906423,0.767585,0.705254,0.817618,0.524685,-0.691561,-1.00392,-0.425519,0.162373,-0.338594,-0.892889,0.52704,-0.586024,-0.633382,-0.667998,0.314906,0.168787,0.428526,-0.902622,0.203517,-0.338262,0.168659,-0.0627569,-1.17179,-0.896665,0.504757,-0.849172,-1.12466,0.221268,0.690079,-0.710217,-1.42704,0.18541,-0.812114,1.40704,0.138574,-0.425736,-1.3355,-0.949722,-1.07607,0.120482,-0.720314,1.40879,-1.00552,-0.482865,-0.682911,0.279364,0.239293,-1.37424,0.829136,-0.412878,0.287821,1.38459,-0.954315,-0.572792,0.672361,-0.879498,0.294548,-0.902487,-1.42562,0.306881,0.763108,-1.26127,-0.823205,-0.114264,-1.41134,-0.76964,-1.7612,-0.902384,-0.676636,-0.882848,0.178794,0.143345,-1.0367,0.324753,-1.38129,0.0703145,-0.364675,0.103017,0.130618,-0.431984,-0.551876,-1.33398,-1.12727,0.430241,-0.0992797,-0.907499,0.320446,-0.736577,-0.080046,0.969558,-0.385076,-1.00382,-1.13112,-0.658853,-0.67487,-1.41326,-0.588751,0.114396,-0.841966,0.586668,-0.261394,0.820707,-0.386701,-1.19374,-0.0894471,0.151098,-0.926579,-0.894021,0.427242,-1.04125,0.52862,-1.2852,-0.882647,0.808203,0.423636,-0.41532,0.76236,1.09365,-0.321543,-0.770934,0.31422,-0.45739,0.0819957,0.394453,0.411293,-0.969481,0.0152844,-1.08951,-0.0363055,0.623816,-1.13714,0.0999919,0.513644,0.367444,0.390067,0.13306,-0.323013,-1.19191,0.630004,-0.606689,-0.90545,0.531678,-0.154018,0.311651,-0.345242,-0.910885,-0.578398,-0.361001,-1.43263,-0.661408,-0.11677,0.282138,-0.589997,-0.150638,-0.305462,0.367612,-0.0406191,-0.445034,-1.14834,-0.277099,-0.888401,-0.388951,-0.996223,-0.737163,-0.974716,0.163216,0.827051,0.575519,-0.982971,-0.133455,-0.568514,-0.995701,-0.189719,0.241365,0.163757,0.284115,-1.01005,0.154752,-0.750934,-1.02899,-1.10581,0.606796,-1.33427,-0.79064,-0.459111,-0.0907999,-0.906686,-0.68793,-1.29528,-1.16008,0.205206,-0.197949,0.434006,-1.29705,-0.0714216,0.754717,0.125857,-0.782926,0.523756,-1.40935,-1.50117,-1.03352,-0.352988,-1.06224,0.680812,-0.392906,0.690207,-0.365162,-1.51712,-0.738284,-1.10809,-0.429276,-1.46396,-0.62643,0.0395537,-0.288205,0.507617,0.108318,1.16583,-1.17353,-1.24049,-0.389394,-1.15376,-0.471054,-0.00983396,0.386247,-0.504817,-0.453986,-0.821063,-0.821165,0.321425,-0.57546,-0.70902,-1.15043,0.0504038,-0.622992,-0.574742,-0.229897,-0.884286,0.345676,0.194148,-0.30302,-1.21468,0.442005,0.440794,0.338786,-0.188,0.808471,0.525659,-0.866096,0.323575,-0.261027,0.140104,-0.66882,-1.18215,-0.805314,-0.687909,0.16842,0.864766,0.069411,0.325734,-0.506351,-1.52136,-0.686045,-0.757376,0.0881478,-0.263296,-1.30104,-0.735717,0.613801,-0.109406,-1.09076,-0.04977,0.4049,-0.899185,-0.7271,0.0880628,0.0327867,-0.587551,-0.632242,0.168184,-0.990246,0.392072,0.051338,-0.29583,-1.07374,-1.60401,0.589253,-0.286696,0.119902,0.132334,0.0433605,-0.956363,-0.361415,0.442852,0.550454,-0.869795,-0.340772,0.37195,0.412445,-0.293317,-0.12823,0.539837,0.644876,-0.19612,-1.24786,-0.830966,-0.705899,0.273379,0.444703,0.218513,0.365939,-1.5948,0.2127,-0.306473,-0.13301,0.156556,-0.116176,-0.324579,-0.14226,-0.928537,-1.07717,-0.554379,-0.34212,0.5269,-1.25553,-0.553691,-1.04548,-0.109411,0.839004,0.6085,-1.18465,-0.240307,0.451498,0.562399,-0.84639,0.618131,-0.691359,-0.766818,0.0511277,-1.07921,-0.909823,-0.829284,-0.942681,0.214723,0.351222,0.40648,-0.633928,-0.972879,-0.653089,0.508139,-0.22473,-0.536142,-1.00801,0.19844,-0.487514,-0.906895,0.589323,-0.136244,0.321265,0.744479,-0.105835,0.491176,-0.31366,-0.830645,0.234223,-0.238847,-1.14956,-1.40006,0.81058,-0.0876534,-1.03365,-1.2121,0.715959,-0.229354,-0.195877,-0.196522,0.409071,-1.23066,0.45565,-0.648322,-1.06438,0.740727,0.610627,-1.09328,0.117232,-1.12174,-0.331609,0.290816,0.00766877,-1.25692,-0.399987,0.167511,0.429006,0.465702,-0.816502,-0.32036,-0.49145,-0.784476,0.444655,-0.383768,0.251784,0.427899,-0.19948,0.532673,0.777958,-0.959573,-0.941135,0.469444,-0.15668,0.34289,-0.937204,0.00956841,0.273265,0.468682,0.373316,-0.997181,0.833861,-1.36386,-1.09059,0.0238079,-0.971146,-0.287439,0.0598312,-1.24942,-0.784149,0.399513,0.263163,0.589441,0.116408,-0.85952,-0.59367,0.116397,0.614958,0.287313,-0.612939,0.435505,-1.17826,-0.373717,0.593389,-0.363595,-1.05904,-0.996084,-0.992327,0.455347,0.508293,0.799705,-0.63215,0.756065,0.307475,-0.628221,-0.200238,1.18547,0.712879,0.682397,0.776312,-0.78764,-0.366452,-0.108582,-1.21925,-0.445625,0.320866,-0.364294,-1.33573,0.280135,-1.13823,-0.847689,-0.243898,-0.673091,0.3205,-0.67748,0.104138,1.13418,-0.574039,0.381009,0.2491,-0.84275,-0.36965,0.943071,-0.530471,-0.195282,-0.39945,0.132139,0.0696258,-0.55878,-0.0713689,-0.396166,-0.1009,-1.16872,0.702387,0.474567,-0.2366,-0.0267049,-1.1269,-0.432627,-0.351216,-0.811551,0.454606,0.540508,-0.375597,-0.0385939,-0.839805,-0.847718,-0.161667,0.340028,0.799311,-0.662953,0.607518,0.218129,-0.774881,-1.21519,-0.955941,-0.258861,0.355977,-0.407701,0.0664422,-0.472959,0.768742,-0.985356,-0.450136,0.52641,0.528995,0.363893,-0.0488304,0.893238,-0.540776,0.66941,-0.646852,-0.914645,0.5968,-0.00680642,0.37957,1.08148,0.109699,-0.799768,0.184773,0.612949,-0.5118,-0.612754,-0.483737,-0.38942,-0.836482,-0.362658,-1.06098,-1.22143,0.492212,0.273451,-0.368405,-0.0786198,0.745457,0.756727,0.172979,0.414211,-0.169526,-0.471213,0.695036,0.734029,-0.7806,0.770229,-0.557514,-1.11798,0.13554,0.727427,-1.10722,-0.615805,-1.07207,-0.281432,-1.04029,-0.128303,0.424971,-0.697652,1.03878,-0.665915,0.85488,0.695414,-0.97105,0.200827,0.653339,0.189522,0.250871,-0.504094,-0.661966,-0.832351,0.307257,0.856656,-0.260963,-0.732047,-0.117448,0.356159,-0.879269,0.885028,0.460961,0.363552,0.301031,0.118335,-1.2856,0.49231,-0.413022,-1.60873,-0.965424,-1.06173,0.238099,-1.10195,-0.664192,-0.442473,-0.760073,0.126511,-1.30353,0.20341,-1.08538,0.0951535,0.366692,0.0763129,0.7424,0.119364,-0.501987,-0.360138,-0.581388,-0.795595,-0.988617,0.499839,0.569419,0.751301,-0.837217,-0.465089,0.114489,-0.998193,-0.0243417,-1.11342,-0.656288,-0.320028,-0.734594,0.32626,-0.159786,0.00316147,-1.06077,-0.308252,-1.10782,-0.703284,-0.860281,-0.482221,0.865026,0.397655,0.193039,-0.338968,0.2621,0.328801,0.664203,0.771108,0.955302,-1.2772,-0.230848,0.422865,0.882901,-0.274192,-0.299602,0.324898,0.575549,0.887972,0.47635,-1.61894,-0.905879,-1.1694,0.515717,0.268483,0.0291444,0.683339,-0.851035,0.219647,-1.03348,0.0304891,0.321476,-0.167622,-0.382149,-0.591436,0.111114,0.804643,-0.769679,-0.224769,0.990327,-1.24724,-0.533445,-0.375719,0.51653,-0.235167,0.892462,-0.265809,1.04994,0.291015,-1.15777,0.682917,-0.211258,-1.28967,0.325474,-0.0150064,0.874742,-0.368495,-0.366854,-1.06371,1.19833,-0.0183573,0.503384,0.327855,0.106969,-0.828181,0.889215,0.607275,-1.08559,-0.842625,-0.57682,-0.753498,-0.986254,-0.390893,-0.485581,0.779852,-0.22664,-0.490505,0.130978,0.592258,0.645967,-0.45359,0.097078,0.113408,0.0738199,-0.217132,-0.976625,-0.152755,0.452673,-0.124773,0.502796,0.532403,-0.816732,0.859191,-0.308786,0.230156,0.323822,-0.0938756,-0.562021,0.339675,-0.190262,0.208026,0.823156,0.118992,-0.812697,-0.657737,-0.0610563,-1.10261,0.0124269,0.57375,0.46047,-0.659517,-1.01546,-0.113516,0.386067,0.337798,0.53316,-1.04755,-0.870954,0.602047,0.255487,0.909638,-0.505996,0.69444,-0.159674,0.110576,0.138188,-0.645435,-0.653562,-1.01134,0.961322,0.899803,0.271533,0.351059,0.072139,0.892237,0.544081,-0.680271,0.679315,-1.25567,0.228609,0.200519,-0.106898,-0.885067,-0.956858,-0.648679,0.0787947,0.702867,-0.141611,0.392107,-0.0455757,-1.32801,0.338851,0.813407,-0.545126,-0.986722,0.895032,0.528664,-0.286443,-0.856175,0.159568,-0.338701,-1.02266,-0.776861,-0.879481,0.157363,-0.892234,0.773381,0.600753,-0.946187,-0.7122,0.777758,0.291644,0.0688993,1.03319,0.391248,1.00197,-0.523909,0.323929,-0.274552,-0.673712,-0.625558,0.170882,0.730885,-0.757023,-0.201664,-1.09632,0.941455,-0.92584,-0.701099,-0.656673,0.0359159,0.38038,-0.499487,-1.09176,0.0568067,0.149882,-1.15208,0.108185,0.0277238,-0.625492,0.681075,-0.275256,0.796916,-0.10342,-0.941183,0.0928293,-0.437696,-0.555397,0.102715,0.441653,-0.190006,0.33929,-0.810873,-0.302475,-1.32441,0.0639151,-0.103424,1.08672,0.126197,0.463367,-0.90647,-0.655837,0.434164,-0.740666,-0.207698,-0.0953058,-1.17483,0.485004,-0.792859,0.0728554,-1.25479,-1.18254,-0.447607,1.11325,-0.48582,-0.344085,0.182022,-1.08462,-1.43473,-0.73066,-1.32512,0.176547,-0.962173,-0.659479,-0.567911,-0.745837,-0.962179,0.130384,-1.23376,0.478567,0.0603537,-0.715967,-0.290321,-0.613421,-0.441968,-0.372131,0.20366,-0.522143,0.409436,-1.73486,-0.689454,1.19706,-0.951927,-0.224754,0.532283,0.523925,-1.13318,0.256572,0.844759,-0.749254,0.452719,-1.25148,0.440036,0.325522,-0.298163,-1.02725,-1.44982,0.141748,0.952855,-1.11076,-0.433164,-0.440294,-0.666415,0.286854,0.558044,-0.239665,-1.11427,0.217307,-0.286595,0.50707,0.151575,0.69216,1.2883,0.734597,-0.0174774,-0.262498,0.625208,-0.169442,-0.797264,0.0151231,0.732459,-0.949151,0.511281,0.260538,-0.899756,-0.945785,1.05601,-0.462652,-0.0231012,-0.322642,-0.444587,-0.74895,-0.958474,0.746126,-1.34165,-0.988844,0.00460236,-1.21889,0.928702,-0.905365,0.748854,0.357594,-1.29505,0.0635787,0.411754,-0.00526426,-0.650391,-0.145922,-0.549507,0.62629,-0.481989,-0.708111,0.998206,-0.865406,0.445311,-1.49177,-0.350128,0.248837,-0.805387,-1.07988,-0.600955,0.448167,-0.993342,0.102204,0.0826932,-0.799337,0.731799,-1.26133,-1.08781,-0.0614218,0.209146,-1.27311,-0.762836,0.112096,0.391998,-0.533122,-0.610698,-1.25503,1.01881,0.375353,-1.28849,-1.10322,-1.52897,0.206599,-0.636927,0.917666,-1.08409,-0.284216,0.190395,0.0994518,1.07831,-1.17857,-0.201632,0.303889,0.497697,-0.959976,-1.15818,-0.746962,-0.664459,-0.716977,-1.04943,-0.861984,-0.422645,-0.234822,1.60613,-0.579466,-0.154047,-1.06507,-0.535001,-1.05244,-1.07278,0.0579807,-0.51221,-1.05838,-0.329827,-0.0316016,-1.16666,-0.105719,-0.869332,0.0815995,-0.903108,0.287854,0.676284,-0.0973625,0.449794,-0.105481,0.340759,0.28622,-1.21106,-0.610815,-0.94681,-0.930139,-0.260021,0.0882254,-0.838224,-0.0450476,0.505587,-0.575803,0.286539,-0.224721,0.0849197,1.02081,-1.06167,-1.09726,-1.37607,0.155922,0.476693,-1.10473,-0.726417,0.591773,0.610647,-0.236822,0.382918,0.605224,-0.766392,-0.205871,0.134644,0.604487,-0.225043,-0.539953,-0.226897,0.507296,-0.228988,-1.14997,-0.537562,-0.56556,-0.16032,-0.198931,0.842979,-0.525627,-0.338616,-0.608561,-0.543775,-1.47521,-0.586329,-0.45581,0.362214,-1.00412,-0.533221,-1.24798,-1.15328,-0.581358,0.0762062,0.184794,-0.761945,0.222644,-0.0898508,0.323401,0.251203,-0.810688,-0.61592,-0.983975,0.72971,0.526169,-0.490163,-0.590294,-0.57159,0.325202,-0.184622,-1.04175,-0.558438,-0.505938,-0.326171,-0.0993497,-0.332919,-1.42049,0.597088,-0.475471,-0.960359,-0.097562,-0.814997,-0.817387,0.103114,0.557279,-1.2374,-1.11866,-0.216523,0.31839,0.356686,-0.650358,-1.31351,-0.887724,-0.581653,-1.13472,-1.44368,0.503272,-0.455692,-0.408415,0.277254,-1.26868,0.080168,0.622807,-0.262765,-1.03757,-0.0515566,-1.31016,-0.835726,-0.282167,-1.05809,-0.319396,0.431456,-0.462228,0.119289,-0.00242504,-0.564695,0.512333,0.482912,0.510773,0.394232,0.231183,-1.04998,0.161264,0.532408,0.0616256,0.77265,-1.0546,-0.284235,-0.671271,0.0925895,-0.842853,-1.10665,-0.385135,-1.10723,0.117538,-0.534657,-0.175743,0.153739,-0.154757,-0.850524,0.492086,0.710766,-0.969389,0.00490504,0.0600567,0.822057,0.549119,-0.198177,0.00647658,0.249891,-0.656862,-0.260864,0.736991,-1.08043,-0.595898,-0.116288,0.636346,0.155398,-0.636443,-1.11651,-1.28656,-0.737819,-1.23798,-0.152144,-0.159587,-1.22764,0.291973,-0.446741,0.314381,-0.0355906,-0.0987606,0.410425,-0.492361,-0.527266,-0.909851,1.06383,0.198696,-1.18891,-0.107063,-0.503655,0.432129,0.110691,-1.44185,0.71747,0.471583,-0.447359,-0.755638,0.113442,-1.35679,-0.0281277,0.640162,-0.965736,-0.89543,-0.788004,0.345828,0.670084,-0.678667,-0.244269,-0.794489,-1.4501,0.459346,0.199855,0.28717,-0.0270109,-0.101577,-1.18753,-0.882731,-0.752019,-0.987257,0.992382,0.177387,0.312887,-0.255128,0.496033,-0.179361,-0.728105,-0.753201,-0.920309,-0.982657,-0.645585,-1.3608,-1.08285,-0.270881,-0.552977,0.0222972,-1.03964,-1.10554,0.344116,-0.0217153,-0.89602,0.564136,-0.248297,-1.05832,0.137756,0.604175,0.48561,0.381421,-1.20319,-1.42364,0.525833,-0.00149902,0.233094,0.593767,-0.64995,0.0604744,-0.212603,0.380139,-1.25839,0.124101,-1.13996,-0.736812,0.609472,-0.890309,0.290429,-1.28795,0.116213,0.588055,-1.07627,-0.554836,-0.104579,-0.274205,-0.175185,-0.971374,-0.484721,-1.08253,-1.35751,-1.18266,-1.35411,-1.12506,-0.947209,-1.33953,0.503617,-1.18928,0.643995,-0.846148,0.220278,-0.10999,-1.36006,0.218493,-0.860493,-1.24151,-1.16427,-1.31148,-0.765208,0.213034,-1.24579,0.249093,0.112682,-1.01888,-0.466743,-0.397936,0.0686119,0.048598,-0.299085,-1.21508,0.66309,-0.0431137,-0.892038,-1.29981,0.59935,-0.737962,-0.885625,-0.419253,-0.37739,0.430449,0.162812,-1.06962,-0.0121573,0.122218,0.157646,-0.539385,0.268315,-1.68916,0.5036,-0.652071,0.738131,0.0304926,-1.07786,0.408598,-0.0282639,-0.160733,-1.45777,-0.587041,-0.705687,0.246182,-0.0247907,-0.319035,-0.543342,0.109173,-0.975106,-0.941553,-1.40933,-0.981671,0.321166,-0.347111,-0.706917,0.0506611,0.163931,0.093262,-0.146745,-0.0155157,-0.551002,-0.576472,0.169169,0.729232,-0.509101,0.0234303,-0.52841,0.208513,-0.595493,-0.547907,-0.687826,0.103186,0.292474,-0.09144,-0.264785,-0.920426,-1.57629,0.287433,0.114032,-0.210046,-1.2939,-0.108308,0.851904,0.878158,-0.815172,-0.415038,-0.0463784,0.643865,-1.21163,-0.902926,-0.157149,-0.572451,-0.248806,-0.793763,-0.603008,-0.805822,-0.731677,0.920917,-0.392763,-0.76023,0.791496,-0.706241,-1.66591,-1.47247,-1.32118,-0.336005,-1.00227,-1.29382,-0.23165,-1.75693,0.46745,-0.528836,0.56014,-0.104962,-0.451984,-0.739265,-1.48329,-1.15808,-1.4206,-1.06522,-0.777708,0.180891,0.397037,-1.18822,-1.34176,0.719584,-0.278415,-1.23285,0.510848,-0.819572,-0.704157,-0.618119,-0.339777,-0.184198,-0.912544,0.333119,-0.910918,0.250551,0.351261,0.2451,0.117889,-0.0277921,-1.36506,0.292055,-0.615832,-0.0932344,-1.5194,-0.209275,0.293426,-0.984103,-0.188183,-0.763587,0.990599,-0.874644,-1.06529,0.399013,-0.632522,-0.319741,-1.3082,-0.443422,0.69252,-0.683419,-0.257116,-0.190041,-0.847351,0.362177,-1.19566,-0.460752,-0.0975711,-1.06395,0.0441069,-0.230642,-0.185567,0.990576,-0.162919,-0.827039,-0.31381,-0.800078,0.87255,-0.672957,-0.42041,-0.819173,0.310111,-0.221212,0.0670685,0.0368466,-0.110342,-1.03905,-0.4628,-0.330236,-0.848536,-1.1349,-0.516893,0.028181,-0.21096,-0.340526,-0.0452664,0.0729522,-0.0870598,-0.297945,0.890993,-0.172521,-1.03719,-0.50757,-0.114369,-0.300943,-0.147148,-1.12039,-1.79588,-0.383573,-0.43643,0.0145833,1.15295,-0.473548,-0.14413,-0.255787,0.444278,0.647848,0.22696,-1.23951,-0.718399,0.39425,-0.564124,-0.290996,-0.421318,-0.856465,1.29467,-0.677841,0.680403,-0.0804499,0.151449,0.196543,-0.79215,-1.39414,-0.470856,0.607803,-0.215532,-1.06741,-0.730743,0.186145,0.842922,0.235761,-0.637684,-0.261408,0.383772,-0.193518,-0.74622,0.174321,-0.657693,0.635045,-1.44758,0.272151,0.514881,-0.563809,-0.912777,-0.133489,0.13132,-1.02855,0.163884,-0.423891,0.998951,0.340943,-0.82604,-0.870478,0.5657,0.442562,-0.2705,-0.579705,-1.3751,-0.401902,-1.05371,0.360087,-0.877842,-0.296244,-0.479546,-1.11341,-1.24188,0.327325,1.34423,-1.09739,0.55844,0.839623,-0.955654,-0.271983,-1.42695,-0.431214,-0.491036,0.545943,-0.468444,-0.582068,-0.272936,-0.10518,-0.261734,1.24158,1.087,1.60622,-0.0328823,-1.0842,-0.847018,-0.754937,-0.436708,-0.109501,-1.00091,0.319869,-1.23101,-0.0908795,-0.849043,-0.53314,-0.788422,-0.850783,-0.190283,-0.731351,0.700778,0.223664,0.508992,-0.672635,-0.657553,-1.0663,-1.99796,0.314229,-0.495565,-0.172904,-0.700665,-0.306734,-0.965854,-0.53675,-0.601534,0.110581,-0.185756,0.206844,0.702187,-0.725463,-0.597552,-0.781193,-1.08286,-0.694947,-0.116067,-0.720164,-0.997499,0.874678,-0.739089,0.67467,-0.935918,-1.16354,0.919964,1.11349,-0.203067,-0.419725,0.499201,-0.223452,-0.79378,-0.457507,-0.517476,0.677116,-0.0265327,-0.315054,0.492057,0.869231,1.29497,-1.05793,-0.519944,0.553046,-0.550692,0.382768,1.18354,-0.47357,-1.43889,-0.0524765,0.086513,-0.390748,0.199719,0.87845,-0.364643,0.229134,-1.03435,-0.0282153,-0.160576,0.340931,-0.0972003,-0.173848,-0.561581,-1.65721,0.931621,0.142058,-0.0265722,-0.825154,-0.735619,-0.0418103,-0.730517,-1.08481,0.627163,-1.02611,-1.38822,-0.368892,-1.07906,0.816596,0.652142,-0.661444,-0.341924,-1.06688,-0.507179,0.801693,-1.03459,0.797335,-0.389146,-0.768277,0.200299,0.739372,1.62047,-0.128655,-0.340538,-0.755195,-0.120092,-1.35574,0.777255,-0.747707,0.116328,-0.997701,0.449027,0.909653,-0.185549,0.170849,-0.672925,-0.383711,0.619458,-0.426636,-0.596383,0.376782,-0.840871,0.254656,-0.125868,0.339247,-0.331455,-0.31327,-0.102793,0.102139,0.662977,-0.0304685,1.08243,-0.0604177,-0.932257,0.489833,0.554398,0.111866,-1.23122,0.429854,-0.747148,0.421723,-1.34234,1.05404,0.117405,-0.296611,0.76154,0.713426,0.883358,0.231449,0.000230968,-0.857149,0.597619,0.458897,0.359234,-0.15199,-0.158707,-1.60951,0.143061,-0.867339,0.116238,0.992999,0.456471,-0.324654,-0.161112,0.477191,-0.020259,-0.63775,-0.104692,-0.328298,-0.93927,-0.409679,1.17928,0.366356,0.101692,-0.371246,-0.162136,-0.743448,-1.06271,-0.353377,0.238753,0.116687,-0.406212,-0.275812,0.410769,-0.999308,-0.955827,0.355602,-0.535651,-0.836282,-1.09995,-0.832364,-0.963197,1.22063,0.408888,0.0143563,0.105972,-0.490605,0.52257,1.65626,0.399318,0.422024,-0.473421,0.0654171,0.511562,0.343754,-1.02029,-0.501087,0.299781,-1.34089,0.487332,0.0871336,-0.134729,0.814835,-0.162837,-0.988713,-1.09201,-0.228682,-1.05819,0.15451,-0.085751,-1.06152,-0.0705023,0.131406,0.69091,0.435427,1.02338,-0.308286,-0.550932,0.214575,-0.593234,0.677042,-0.674493,-0.547691,-0.746887,-0.960085,-1.25259,-0.11881,0.0494378,-1.76632,-0.316489,-0.872307,0.444086,-0.652124,-0.374458,0.189352,-0.660887,-0.527405,-0.989302,-0.652321,0.514587,0.0300829,0.0671587,-1.01165,-0.910003,-0.616077,-0.694466,-0.876345,0.795445,-0.00633436,0.156233,-1.37554,0.0946719,-0.66691,-0.265144,-1.24706,-0.139952,0.0141421,-0.0720335,-0.970958,-1.62415,-0.742189,0.109149,-0.111878,-0.0799033,-0.57325,0.056142,-0.943789,-0.0913355,-1.33517,-0.397901,-0.86534,0.0838116,-1.29795,-0.698346,-1.48528,-0.00707193,-0.981191,-1.2288,-0.975872,0.65808,-0.848967,-0.937304,-0.562334,0.00982232,1.04875,-0.796665,-0.551421,-0.322517,-0.169491,-1.58638,-0.157834,0.269823,0.877293,-0.723581,-0.607508,-1.14606,-1.42642,-0.729074,0.198131,-1.46936,-1.46151,-1.24289,-0.845533,-0.88718,0.286117,-0.467435,-0.0588886,-0.370232,-0.319396,0.153191,0.166271,0.423946,-1.39986,-0.931719,0.0965913,-1.45392,-0.548688,-0.596929,0.490288,-0.878642,-1.47699,-0.736736,0.337027,-1.12015,0.476319,-0.0351523,-0.934633,-1.42922,0.828921,-1.40864,-0.937492,-1.07851,-0.869162,0.052348,-1.26938,-1.33987,-0.703789,0.218401,0.15206,-0.579309,-0.00190741,-0.341934,-1.18343,0.0344395,0.550483,-1.68471,0.719024,-0.198276,-1.01827,-0.104388,0.612161,-0.602842,0.500438,0.801834,-0.50013,-0.350945,-0.87152,0.131201,0.387669,-1.52784,0.167018,-0.850832,-0.599285,-0.841343,0.783571,0.123941,-1.47181,-0.54414,-0.944585,-1.78659,1.11803,0.00496062,0.0586748,-0.686644,0.0872311,-0.717536,-0.830814,-0.467766,-1.34169,-0.183222,-1.81525,0.762118,-1.29975,-0.501198,0.35501,0.377499,0.396157,-1.41693,-0.421644,0.705098,-1.40368,0.39525,-1.04731,-0.427855,-0.692869,-1.87131,-1.24283,0.109791,-0.295492,-0.785284,0.423206,-0.30569,-1.03253,-1.00532,0.378287,-0.0294045,-2.08891,-0.334156,-0.267895,-0.848583,0.31772,0.593502,-1.25916,0.539455,0.864068,0.230381,0.107489,0.361233,0.6909,-1.2255,0.030375,-0.898857,0.0478824,-1.44571,0.242939,-0.66203,-1.32988,0.00622073,-0.896966,0.175189,-1.51019,-1.0256,-1.56689,-0.348522,-0.0394382,-0.727577,-1.22894,0.867438,-0.356341,0.0528604,-1.90742,-0.431473,-0.921569,-0.904765,-0.72602,-0.666952,-1.43082,-1.23661,-0.890579,0.437566,-0.689082,-0.95969,-1.08504,-1.46162,-0.749397,0.493815,-0.667624,-0.708239,-0.317955,-0.249178,-1.44585,-0.0185936,0.0683237,-0.658419,0.449093,-0.366647,-0.22638,-1.24093,-0.55811,-1.29636,0.258555,-0.577119,-0.0840692,-1.11923,0.294243,-1.4155,0.356838,-0.0569596,-1.19775,-1.04262,0.0272348,-0.656473,-0.0535733,0.482278,-1.42488,1.16175,0.332725,0.655931,-0.317162,-0.0308933,0.400108,-0.281488,-1.21654,-0.0702396,0.650601,-0.685733,0.520043,-0.909185,-0.240487,-0.592297,-0.539031,-1.04576,0.241161,1.69677,-0.0310041,0.379694,0.762846,-1.34729,-1.2198,-0.697489,0.407534,1.1559,0.0577999,-0.865914,1.28513,-1.39506,-1.16014,0.190893,-0.0275863,0.031594,-1.04255,0.546377,0.310867,-0.228066,-0.927949,-1.49269,0.639977,-0.932008,-0.344912,-0.14426,0.589428,0.49041,-0.158461,-0.0853019,-0.0909065,-0.458915,-0.940656,0.272145,-0.169953,-0.719294,1.09359,-0.0672394,-1.1491,-0.359723,0.18204,0.28934,-1.18351,0.319794,-0.283788,0.336972,-0.478006,0.467248,0.00592549,0.79054,-0.477936,1.13629,-0.739903,-1.1797,-0.947659,-1.03898,-0.596129,0.259137,-0.326232,-1.64138,-0.0441652,0.64054,-0.640921,-0.523022,-0.468164,1.11072,0.646124,-0.234595,-0.686553,0.0427813,0.0648137,-1.31343,0.039649,-1.18646,0.555998,-0.578085,-1.15124,-0.167242,-1.10711,0.896718,-1.05619,-1.26851,0.0389434,-0.921855,-0.0581611,-0.0120167,0.316643,1.00758,0.987987,0.362407,0.468769,0.150737,-0.0408383,-0.0217246,-0.40539,-0.95894,1.0751,0.0277081,0.443974,-0.124496,0.660007,-1.38189,-0.391815,-0.329371,-0.586968,-0.514652,-0.0860814,-0.574029,0.179457,-0.290002,-0.619417,0.159288,0.808476,0.561709,0.354145,0.223486,0.539401,-0.43561,-0.479331,0.408557,-0.921883,-1.21473,-0.724297,0.627773,-0.134066,-0.658946,-1.16524,-0.626348,0.258472,0.684455,0.368123,-0.12483,-0.121889,-1.55279,-0.401192,-1.18142,0.266014,-0.482462,0.0650129,0.751727,0.734233,-0.704731,-1.20991,0.267403,0.310237,0.0647186,-0.21727,-0.783389,0.624153,-0.594085,-0.583132,-0.0171015,0.967596,-0.828121,0.302221,-0.851336,0.135889,-0.446438,-0.509616,-1.42255,0.310414,-0.889755,-0.0727991,0.0884139,-0.59899,1.58405,0.522444,-0.253484,-1.00456,-0.53318,-0.357847,-0.138166,0.936877,-2.30308,0.126201,-0.51454,-0.0194487,0.292759,1.08928,0.0048892,0.806317,0.776842,-0.190192,0.984435,-0.761294,-1.171,0.665532,-0.364956,0.0178245,-0.296215,0.775594,-0.328341,0.091793,-0.866988,0.41502,0.398431,-0.228636,-0.65928,-0.865233,-0.75604,0.192673,-0.441978,-0.819757,0.487535,0.761955,0.302533,0.659951,-0.0877703,-0.734084,0.924372,-0.981527,-1.36284,0.342042,0.443036,0.352486,0.363999,-0.807095,1.57503,0.334121,-0.0714453,-1.02129,0.146401,1.38122,-0.174553,1.24181,-0.258967,-0.203393,-0.655302,-1.03852,-0.752921,-0.493051,0.670332,-1.02866,0.442501,-0.35342,1.27184,-0.44252,0.418475,-0.134585,0.275749,-0.399018,-0.579755,0.0446171,0.79203,-0.086312,-0.129529,0.3708,0.366129,-0.0154641,-0.814459,-0.400639,-0.0096867,-0.396638,-0.839076,-1.16978,-0.253117,0.0268835,0.0840321,0.0905019,-0.73938,-0.674183,0.276803,0.537883,-1.30081,-0.858447,-0.157034,-0.982893,0.318052,0.0858758,-0.482083,0.587044,-0.241419,-0.680751,-0.342722,-0.417382,0.698485,-0.447954,0.197009,0.165563,0.191175,0.0340581,-0.284791,-0.547692,-0.0162624,-0.329066,0.655964,-0.277761,0.37038,-0.715283,-1.18361,-0.109641,0.208341,0.286896,0.158768,-0.605693,-0.558209,-0.261885,-1.1007,-1.14973,0.0991998,-0.711544,-0.205443,-0.940741,-0.658047,0.775906,-0.218513,-0.270747,-0.24281,-1.00664,0.0103481,0.454395,-0.769605,0.32312,-0.823785,-0.45556,-1.18336,-0.959705,-1.04164,-0.746477,-1.53413,-1.12291,0.211637,1.66175,-1.39945,0.0483861,-0.978985,-0.40612,0.243386,-1.1537,-0.911113,-0.534574,-0.330471,-0.903665,0.470624,-1.41907,-1.34889,-0.870682,0.615173,-0.659497,0.437786,-0.791716,-2.15104,0.0700967,0.0793926,0.127619,-0.299682,-0.905494,-0.328556,0.0589574,-1.83067,0.172843,0.714256,-1.08193,1.3247,-0.485943,-0.145583,0.24539,-0.305761,-1.17521,-0.820957,0.465889,0.462282,0.432564,-0.930882,0.0954785,0.565681,-1.01415,-1.65205,-0.0438237,0.263807,0.188929,-0.154725,0.1448,0.270712,0.238941,-1.23163,-0.951499,0.358078,0.343722,0.597,0.907528,-1.49748,0.177676,0.291629,0.563889,0.147485,-1.80543,-1.0352,-1.01129,0.67842,-0.359692,-0.605349,-0.397838,-1.98055,-1.06795,0.0401484,-0.346397,-1.08903,-0.0585828,0.750319,0.64629,-1.98204,-0.745228,-0.577254,0.491331,0.0299352,0.0400661,-1.90452,-0.763332,-1.2601,0.338782,-1.50122,0.523042,0.315216,-0.0999464,0.337892,-0.292362,-0.440389,-0.373017,-1.13758,0.0823319,-1.48234,-0.182324,-1.10081,-0.963403,1.25221,0.0932776,-2.19305,-0.74637,0.883335,0.875507,-1.40712,0.343177,-2.77318,0.428222,0.491823,0.581625,0.407783,2.58304,-0.663339,0.646454,0.140759,-0.653843,0.212783,-1.06397,-2.3016,-0.645635,-0.70458,-0.944835,0.408864,0.680142,1.0504,1.06369,0.54909,-1.24349,-1.06328,0.583041,-1.30081,-0.406195,-0.874666,-0.440832,0.952741,-1.46556,-0.782292,-0.622702,0.322762,1.07789,0.572495,-0.472911,1.11303,-1.49371,-1.73326,0.371683,-0.0289347,0.190297,0.0945316,-0.292082,1.28149,-0.658288,-0.403719,0.179238,-1.14907,-0.597415,-0.363028,0.618608,-0.143654,0.273856,-0.975151,-0.0447133,0.66852,1.16861,1.50222,0.0742004,0.603671,-0.940264,1.43695,-0.5308,-1.15153,0.493359,-0.188833,-1.66424,0.553145,-1.2791,-0.0422134,-0.562338,-0.00694904,-0.555463,0.683969,-0.00221206,-0.539358,-0.11443,-0.769086,-0.463311,0.40953,0.396888,-0.882461,-1.04441,0.0219675,-0.848216,0.786866,-0.274519,-1.22615,0.876619,-0.985228,0.428836,-1.19325,-0.823249,0.197558,-0.991705,-1.11632,-0.924253,-0.985112,-0.989842,-0.870968,0.633668,-0.14515,0.368344,-0.382476,-0.458534,-0.147221,-0.543568,0.789911,0.432036,-0.93806,0.100966,0.332643,-1.17275,0.472548,-0.417783,-0.917672,0.333198,0.914101,-0.359947,0.0399678,-0.417132,-0.765169,0.18696,0.16329,-0.00385579,0.598322,-0.356203,0.387888,-1.12147,0.256582,-1.34333,0.469811,0.139538,-0.684025,0.562531,-1.35045,-0.31037,-0.332504,-1.32781,-0.35637,0.206716,0.377437,-0.491624,0.637677,-0.0872439,0.13935,-0.776583,-0.515294,0.225262,-0.387034,-0.805705,-1.08958,0.820073,0.581267,-0.177914,-0.595204,0.200691,-0.42745,-0.305332,0.893128,-0.729982,-0.0164195,0.26019,0.536029,-0.225725,0.363796,0.927263,-1.08175,-0.0643052,0.956799,0.241399,-0.902644,0.261832,0.779801,0.752935,-0.238194,0.184021,-0.774791,0.792674,-0.601239,0.339756,-1.0702,-0.260698,-0.0410269,-0.99521,-1.25622,-1.1933,-1.47232,-0.0846943,0.132064,-1.22583,-1.21901,-0.758954,0.34156,0.833719,0.231445,0.414578,0.676594,0.424752,-0.965159,0.604088,-0.0860716,-0.863568,-0.00939113,-0.0960412,-0.799938,-1.41144,-0.964649,-0.398738,-1.10029,0.118869,-1.1875,-0.742644,-0.765787,0.704247,-0.209696,-0.344348,-0.839104,0.222247,-1.31128,-1.27829,0.215088,-0.744536,-0.892374,0.0852356,-0.922595,-0.900409,0.307377,-1.04684,-1.25561,-0.236885,0.840165,0.00525845,-0.0107896,-0.130826,-1.071,0.686145,0.0450886,-0.556924,-1.13111,0.336897,-0.561248,-0.160272,-0.948476,0.139875,-0.104476,0.322776,-0.85815,0.0531058,-0.448575,-0.365875,0.575353,-0.636225,0.0114987,-1.25681,0.295048,0.620136,-0.963034,-0.699674,0.202378,-1.21736,0.176574,0.252092,0.250996,-0.203053,-0.433385,0.413921,-0.520564,-0.718696,-0.247563,0.15641,-1.02767,0.606349,-0.621517,-0.514981,0.340667,0.25337,-1.00835,0.711362,-0.12323,-0.135601,-0.525029,-0.603796,0.140369,-1.71844,-0.235435,-0.114902,0.403587,-0.426709,0.393601,0.511962,-0.220348,-0.0219643,0.260442,-0.774338,-1.14417,-0.490547,-0.828504,-0.313903,0.177924,0.0142296,-0.88477,0.483899,0.0116518,-0.124791,-0.507074,-0.521952,-0.502684,-0.675293,-0.543802,1.33137,-1.172,0.255571,-0.557746,0.26158,0.267565,0.00196601,-0.518903,0.116775,-0.765006,-0.838958,-0.294552,0.293122,0.788798,-0.745054,-1.13225,0.668547,0.359305,-0.535858,-0.391335,-0.150412,-1.45291,0.121258,-0.354484,-0.200744,-0.944803,0.357772,-1.26959,0.0419265,-1.20709,-0.874481,-0.575519,-0.833276,-0.709899,0.185313,0.833256,0.653592,0.339335,-0.627841,-0.288466,0.753968,0.223809,-1.02171,0.261025,-0.701158,-0.28015,0.742347,-0.762815,-0.814731,-1.01473,0.155336,0.0132228,-0.937244,0.117219,-1.02803,0.457783,0.257805,0.262853,0.126257,-0.657829,0.243212,-0.50608,0.178403,0.49447,-0.145005,0.828792,0.39595,-0.190368,-0.21245,-0.770094,-1.09841,0.0852152,0.279696,-0.939808,-0.578013,-0.988159,0.350652,-1.10408,-0.863798,-0.61505,-0.510725,-0.787934,0.597829,-0.817845,0.147726,0.503431,-1.11521,-0.636599,-0.478685,-0.745345,-0.153643,-0.809772,0.0193806,-0.56796,-0.654429,-0.905528,-0.704251,0.582466,-0.0335475,0.11788,-1.12906,0.835938,-0.537818,-0.127042,-0.451344,0.0307663,0.373119,-1.01721,0.258921,-0.591783,-1.03687,-0.74961,0.353754,-0.871502,-0.390007,-0.871444,0.730314,0.0233051,-0.179505,-0.448327,0.571774,-1.06241,-0.0195605,-0.139329,-0.0777348,0.0222062,0.108401,0.653584,0.477048,-0.324111,0.397219,0.733928,-0.842502,-1.06814,0.0134639,-0.0615564,-0.0325819,-0.0443511,0.566277,-0.0742982,0.094329,-1.0523,0.0253452,0.283663,-1.05736,-0.849754,-0.52493,-1.35558,0.779817,0.365878,0.0649407,-0.0125623,0.532153,-0.843579,-0.503395,-0.196667,-1.73663,-0.746966,-0.259652,0.362198,-0.137433,-0.658766,0.204876,0.484022,-0.884362,-0.754291,-0.133767,-1.05865,-0.351045,0.0476543,-0.313911,-0.124356,0.256977,-0.316572,0.0218931,0.0484887,-0.287077,-1.44413,0.251003,-0.352493,0.523079,-0.940612,-0.328032,0.615719,-0.232493,0.203895,-0.545816,-0.0791108,0.764185,0.398462,-0.65907,-0.165642,-1.11482,0.830047,-0.549429,-1.19267,-0.885129,-1.11275,-0.472796,0.856212,-0.324275,-0.722212,-0.609819,0.412262,-0.54746,0.511052,0.0467513,-0.137734,1.00983,-1.30151,-0.750831,0.486553,-0.34862,-0.0874977,0.482784,-1.48531,-0.522612,-0.821505,-0.185732,-0.331979,-1.25944,0.279169,0.6494,-1.21836,0.99957,-0.677722,-0.355848,0.930177,-0.135313,0.958916,0.487501,0.569067,-0.999404,-1.253,0.185432,-0.836784,-1.00088,-1.04846,-1.26357,-0.932507,-0.610342,-0.256549,0.577331,0.541174,-1.06268,0.326919,0.587727,-0.667513,0.417317,-0.238107,0.975219,0.788209,-0.654467,0.839728,-0.765715,-1.29523,-0.602591,0.206299,-1.28104,0.295851,0.0933032,0.213514,0.248104,0.247023,-1.06095,-0.49767,-1.77555,-0.930154,-0.291303,-0.514443,-0.685904,1.02752,0.299737,-0.426354,-0.117173,0.396481,0.716468,-0.0886341,0.249156,0.039853,-0.797064,-0.262614,-0.0865406,-1.2871,-0.467802,0.498001,-0.4946,0.351531,0.245064,0.0403675,-0.261712,-0.0722898,-0.686267,-1.02071,-0.739209,-0.696471,-0.092286,-1.06041,0.170157,-0.997248,0.122243,-1.10006,-0.254399,-0.320043,-0.620151,-0.993429,-1.06701,-0.887802,0.321519,-1.2583,0.333841,-1.11076,-0.272457,-0.128913,-0.15757,0.181193,-0.42426,-1.38184,-0.520256,-0.844028,0.372173,0.0323912,0.0451159,-0.583004,-1.14611,0.585632,-1.19437,0.66564,-1.01463,-0.613862,0.247387,-0.300044,-1.25021,-0.105869,-0.587116,-0.0639741,-1.22641,0.487924,0.179023,0.0932833,0.41774,0.541927,-0.17511,-0.901157,-0.359822,-0.701201,-0.989897,-1.35303,-0.487303,-0.023238,-0.467558,-0.539176,-0.286916,0.602237,0.100137,0.065366,-0.294413,0.185384,-1.0982,1.04305,0.636794,-1.5701,-0.529156,-1.02606,-1.15245,1.00898,0.275786,-0.875307,-0.733781,0.2215,0.704467,-0.939395,0.235533,-0.194594,0.179038,-1.36762,-1.15153,0.724429,-1.2078,-0.391078,-0.700083,-0.382885,-1.32155,-1.498,-1.13858,0.361799,0.151873,-1.62221,0.46159,-1.58454,0.144751,0.776324,-1.15841,-0.682823,-0.0417139,-0.314528,-1.23729,0.594271,-0.273,-0.422621,-0.901241,-0.566481,0.668832,0.888568,-0.780875,0.0443092,-0.379761,-0.302258,-0.493446,0.482077,-1.30492,-0.762285,-0.357,-1.11258,-0.182621,-0.0220627,-1.31027,1.43411,0.817445,0.162624,0.535231,0.210061,-1.19532,-1.4485,-0.726462,-1.7348,-0.308019,-1.1385,-0.261269,-0.15092,0.598838,0.097469,-0.245968,0.599923,-0.411154,0.320524,-0.956802,0.00449402,-0.512154,-1.27319,-0.765903,-0.354111,-0.224347,0.586374,0.424292,0.017533,-0.499194,-1.44822,-0.414458,0.185683,0.465724,-0.350266,-0.920044,-1.29702,0.124652,0.250007,-1.12165,-0.922547,0.380875,0.981463,-0.80575,-0.622109,-0.294108,0.116032,-0.652422,-1.47047,-0.0332702,0.78931,0.012778,-0.616804,-1.47662,0.134317,0.291081,-0.988658,0.393286,0.0264581,-1.36556,-0.869392,0.0812475,-0.39928,0.527085,0.386268,-1.25654,-0.00886321,-0.256164,0.873009,-1.48196,0.295918,-1.31851,0.671917,-0.0460483,-0.789995,-0.569284,-0.352829,-1.11214,1.16567,-0.814434,0.299791,-0.0119833,0.0889031,0.087861,-0.0112349,-0.642326,-0.372719,-0.983107,0.587615,-0.982786,-0.483858,-0.986171,0.114521,0.254138,-1.15922,-0.623604,-0.237527,-0.310653,-1.03292,0.253523,-0.232174,-1.86618,0.795507,-0.52466,0.394408,-1.07491,0.483062,0.363466,-0.426919,0.300114,-1.45811,-0.997604,-0.264059,0.0975334,-1.71341,-0.742025,-1.0857,-0.495063,-1.03523,-0.583159,0.00645858,-0.109139,-0.353093,0.0417916,0.0824328,-0.114544,0.149803,0.30885,-0.739185,0.855184,-0.810887,0.273057,0.450323,-1.16533,-0.42487,-0.193404,-0.8723,-0.421826,-0.572163,0.372428,-1.26777,-0.298465,1.37496,0.367068,-1.19251,0.550073,0.323654,-0.310692,-0.122416,-0.459141,0.210373,-0.877062,-0.784191,0.310111,-0.541595,0.451158,-0.299581,-0.672432,-0.807127,0.0391906,-0.795911,-0.617273,-0.385698,-1.43534,0.0420618,0.262407,0.0759019,-1.01975,-0.183416,-1.42065,0.535421,0.358866,-0.098696,0.227446,-0.467511,0.122601,0.464702,-0.276462,-1.05694,-0.631388,0.64094,-0.0454213,-0.145225,-1.16934,0.192566,0.191634,0.131697,-1.2268,-0.833335,0.36928,-0.183202,-0.0562526,0.174089,-1.03053,0.160695,-0.879776,-0.075,-1.2305,-0.79247,-0.0715567,-1.47811,-0.910709,0.0627286,0.0980581,-1.18491,-0.984762,-1.08082,0.117529,0.892854,-0.611075,-0.705552,0.723258,0.385374,0.0878312,0.625038,-0.319584,-0.455522,-0.0912832,-0.153959,-0.274711,-0.364559,-0.852795,-0.957332,0.407379,-0.960131,0.162666,-1.31721,-1.49281,-0.0292679,-0.380596,-0.468507,-0.158193,-0.088921,1.11022,-0.872763,-0.126601,-0.155508,0.319366,-0.32658,-0.786278,0.501168,-0.244699,-1.0176,0.355989,-1.05123,0.326304,-1.06568,-0.192665,-0.286273,0.342434,-0.13221,0.326144,-1.19915,-0.475553,0.469015,-0.170625,0.657383,0.463981,-0.335827,-0.382642,-0.505752,-0.959067,-0.665515,0.080089,-0.123882,-0.303672,0.365624,-0.787054,0.695029,0.167391,0.0226088,0.575284,-0.908614,0.212566,-0.256947,-0.00902482,-0.0565822,0.550119,-1.17045,-1.23365,-0.543052,0.0832351,0.578129,-0.00430211,-1.06004,0.0925339,-1.20171,0.359974,0.0624335,0.84845,-0.129766,0.833524,0.181067,0.302596,0.0232058,0.0421752,-0.71308,0.506468,0.909219,-0.739381,-0.12389,0.709304,-1.72645,0.89574,-0.797523,0.339223,-1.36981,-1.17243,-0.168594,0.194828,-0.964904,-1.27893,-1.2192,0.499039,0.598644,-0.84301,0.416353,0.795803,-0.961362,-1.13249,-0.0343071,0.41509,-1.1876,-0.983821,-0.577597,0.344636,0.972405,1.23275,-0.29538,0.678411,-0.837654,-0.585346,-0.0460415,-0.5266,-0.710971,0.422658,-1.31357,0.621613,0.428262,-0.0822849,-0.363628,0.180716,-0.0266083,-0.286893,0.54119,-0.0372179,0.291802,-0.405987,-0.0668466,0.106181,-0.0666922,-0.875067,0.398572,0.287589,-1.28508,-0.536722,-0.802937,-0.283208,-0.783541,0.478587,-0.4365,-0.718872,-1.13055,1.03313,-0.0733146,-0.518543,0.354602,0.513105,-0.55864,-0.0938177,-0.191472,-0.233991,0.00206654,-0.790906,-1.20574,-0.585274,0.481247,0.604783,1.18034,-0.420535,0.534349,-0.385645,-0.391108,-0.388022,-1.26033,-1.23179,-0.0841168,-0.973021,0.208087,0.584952,-1.29797,0.514373,-0.721025,-0.939642,-0.38896,-0.987587,-0.00394739,-0.14971,-1.17519,0.212775,-0.798247,-0.328586,-1.16365,0.556666,-0.119641,-0.775485,0.715767,-0.505064,-1.16516,-0.888244,1.01586,0.281558,0.0396135,-0.822293,-0.966195,0.102537,0.180311,-1.28276,0.643287,-1.31947,0.837003,-0.992335,-2.14562,-0.639459,-0.905972,0.439425,-0.173041,0.550078,-1.21496,0.0567744,0.280489,0.420433,-1.07506,0.803085,0.411474,0.396799,-0.693645,-0.817495,-0.383071,-0.637648,0.0266287,-0.844904,-1.51447,-1.13739,-0.231816,-0.780978,1.15662,0.30166,-1.27199,0.410671,-1.33664,-0.98039,-1.22077,-0.905434,0.114523,-1.17748,-1.08383,-1.00956,-0.12574,-0.268034,0.570749,0.242491,0.0809653,0.607764,-0.269095,-0.545681,0.327335,0.874271,0.322866,-0.815313,-1.15153,-1.07997,-1.14091,-1.3428,-0.423448,0.0130643,-0.794342,-0.439708,-0.349114,0.264025,-0.799856,0.150609,1.25178,0.0156884,0.97283,-0.323133,0.426752,0.256756,0.310877,0.466483,-0.35139,-0.176966,0.376033,-1.53775,0.184294,-0.0406011,-0.752909,-0.437639,-0.523538,-1.35831,-0.248108,0.0930577,-0.889976,-0.259095,0.0119943,0.0650392,-0.300088,-1.17614,-0.686087,0.67037,0.850257,-0.496637,0.127678,-0.294315,0.877992,-0.420235,-0.711028,0.280486,-0.675255,-0.99011,0.34576,0.0574445,0.32874,-1.30914,0.159379,-0.619897,0.0541196,-0.672277,0.355967,-0.658449,-1.20539,-0.60319,0.907089,-0.375747,1.33491,-0.555512,-1.22216,-1.11424,0.0579769,-0.91014,1.31143,-0.259871,0.263217,-0.479139,-1.17998,0.123883,1.33391,-0.126554,-0.624366,-0.996567,-0.222477,-1.87771,0.876652,0.320604,-0.259612,-0.276785,-0.795201,-0.0203539,0.667487,-0.795868,0.0135462,0.995494,0.394008,0.340997,-0.498002,-0.131778,-0.0841454,-0.396203,-0.0502486,-1.12285,-0.0427214,0.374197,0.321103,-0.510862,-1.02694,0.361243,-0.214844,-0.732142,-0.807929,0.258297,-0.51625,-0.880496,0.0658379,-0.492191,1.12759,-0.875751,-0.51152,-0.601573,0.636793,0.270308,-0.568722,-0.239512,1.15203,-1.13466,-0.446708,-1.39611,0.197758,0.103895,0.81247,-0.455061,-1.25737,-0.668814,-0.913645,-0.0662493,-0.345478,-0.437154,-0.139391,0.478987,-0.316427,-1.05679,0.686792,0.560591,-0.342556,0.144662,-0.699547,-0.800087,-0.160179,-0.601938,0.0306411,-0.311049,-0.983904,0.492081,-0.976168,0.288704,-0.821955,-0.141918,-1.16244,-0.270291,0.14147,-0.0784394,-1.22578,-0.0608364,-1.1963,-0.874788,-0.938714,0.244335,0.274857,0.696158,0.318229,-0.231393,0.812122,-0.714837,-0.921497,-0.155391,-0.0847996,0.172195,-0.152013,-0.601813,0.253984,-1.15141,1.25764,-0.548036,-0.982309,-0.687016,-0.76116,-1.06936,-0.207215,-0.935364,0.946365,-0.707844,-1.02184,-1.17389,0.366912,-1.07395,-0.571359,-0.966516,-0.0142076,0.961551,0.144531,-0.0265205,-0.237767,0.414983,0.707865,0.242991,-0.833848,-0.249096,-0.616335,-0.12103,-0.903567,-1.24692,0.0562494,-1.03209,-0.88548,0.20099,-0.514758,-0.499646,1.10383,0.632651,-0.536508,0.385079,-0.409064,-0.379925,0.46671,0.400561,-0.0853966,-0.785776,0.66349,-0.535819,-0.786159,0.853489,0.31729,-0.608421,-0.229398,0.253169,0.733971,0.344195,-0.64144,-0.559337,-0.747592,-0.0303587,-0.817245,1.1586,-0.164614,-0.834109,0.0327293,0.41211,-0.417469,0.230859,-0.27615,0.778207,-0.65022,0.397634,-0.417085,-0.805713,0.592827,0.166849,-0.429438,-0.140777,-0.776145,0.0346927,-0.297789,0.529995,0.366591,0.363374,-0.0479319,0.0930483,0.617942,-0.686795,0.688853,-1.2609,-0.602571,0.757682,-0.797312,-0.402154,-1.16136,0.660746,-1.15979,0.604038,-1.01841,0.216133,0.131451,0.489077,0.032052,0.118943,-0.752028,-0.064005,-0.0895105,-0.39465,0.865419,-0.122711,-1.69293,-0.169487,0.0488675,0.685866,0.210751,-1.01263,0.247329,-0.0692952,-0.465748,-0.319701,-0.772457,0.759439,0.023953,0.0468643,-0.772215,0.187856,-0.319529,-0.725746,-0.258699,0.767218,0.560538,0.500884,0.490635,0.121395,0.399129,1.00629,0.339535,-0.921545,-0.00537275,0.544445,0.721142,-0.765034,-0.222562,-0.580602,-0.900232,0.701273,-0.206326,-1.17015,-0.46331,0.340828,0.152694,0.00412677,0.178911,0.566786,-0.999332,1.2348,0.283665,0.271243,0.72145,-0.714897,-0.836376,1.4757,1.01285,-0.870938,-0.362845,0.493508,-0.585315,-1.20629,0.434812,-0.236133,0.788913,0.21312,1.20096,-0.589623,0.975748,-0.28906,0.920463,-0.441481,-0.367993,-0.577383,-1.14171,0.785182,-0.320934,0.501508,0.498981,0.889317,0.011024,0.746264,0.315437,-0.268391,-0.00191395,0.892526,-0.243469,-0.237516,-1.22897,0.334963,-1.29921,-0.435381,1.27923,-0.788074,0.386149,0.488253,0.110403,0.0204365,0.885373,0.486014,0.4037,1.19729,-0.795816,-0.707218,-0.737695,-0.522273,1.55932,1.43498,0.816263,0.451383,0.635369,-0.32266,-0.407312,-0.518949,0.169174,0.798419,-0.268779,-0.980373,-0.513598,0.14199,0.83723,0.0194472,0.606913,0.305742,0.234745,-0.0414593,-0.146488,-0.0724584,0.397912,0.0550313,-0.610339,0.981835,0.328067,-0.366447,-0.733469,-0.0756591,-0.290208,-1.10663,0.145486,-0.469238,1.08043,0.127902,0.301628,-1.88383,0.644461,-0.783904,0.840487,-0.490583,0.112168,-0.670889,0.726918,-0.513809,1.02648,0.0203671,-0.763698,-0.39167,-1.26461,0.531698,-0.73839,-0.861874,-0.0560681,-0.700831,0.597685,0.573866,-0.314211,1.07022,-0.414533,0.875797,0.564717,0.497581,-0.342723,0.481876,-0.337313,0.480784,0.26399,-0.695377,-0.23301,-0.0342916,-0.0818922,-0.337836,-1.33915,0.264243,0.516791,-0.574694,-1.14977,-0.755974,0.566436,-1.20768,0.716086,0.808641,-0.522067,-0.541456,-1.48492,-0.662173,-0.520682,-0.438957,-1.09571,0.173588,0.0234964,-0.739402,0.404748,0.258812,-1.01388,-0.582994,0.258413,0.928769,-0.434148,-0.346442,0.498426,0.579926,0.0177484,0.346233,-0.540764,-0.979893,-1.11065,0.0192169,-0.457908,0.253964,0.560173,-0.227685,0.705849,-1.22366,0.494045,0.0346244,-0.933931,1.20101,-0.641005,-0.0896502,-0.0453357,0.504468,0.726098,-0.0171166,-0.495423,0.382329,-0.153378,-0.63871,0.273203,0.190571,-0.827468,-0.0510784,0.211084,0.64543,-0.195841,-0.968673,-0.779748,-0.108908,0.303705,0.471885,-0.449976,-0.321191,-0.799417,-1.20509,-0.32355,0.664756,0.036687,0.403282,0.362364,-1.12385,-0.307267,-0.0916872,0.41332,-0.764743,1.10466,-0.533529,-0.55463,-0.594797,-0.0991235,0.69345,-0.593017,-1.17379,0.481502,-1.17744,1.53068,-1.66568,-0.918522,-0.704288,0.271553,0.963522,1.00113,0.800216,-0.0944768,-0.866662,-1.10718,0.694055,0.866493,0.267937,0.733209,-0.0660876,0.300996,-0.775656,-0.684045,0.109171,0.18631,-0.781739,-1.1616,0.689868,-0.175867,0.292481,0.639317,0.689367,-0.310713,-0.596576,1.03132,0.294077,-0.924803,-0.705799,0.644714,0.735682,-0.587208,0.0331786,0.214931,-0.200037,0.39274,0.731337,1.25182,-0.369682,0.596916,-0.569007,-0.376358,-0.246517,0.360744,0.117912,0.76061,-0.489679,0.337333,-0.663344,-1.63469,-0.123869,-1.36477,0.877669,-0.870999,0.286483,-0.616309,-0.498215,-0.0805398,0.245728,1.01955,-0.638814,-0.561132,0.157395,-0.978786,-0.714419,-0.32109,0.646002,0.825766,0.693773,-0.469681,-0.0776386,-0.24839,-1.09482,-0.682522,-0.276739,0.283521,-0.143085,0.160546,-0.0352527,0.627389,0.542178,-1.0307,-1.04763,0.297124,0.410134,0.318771,-0.961022,0.463374,-0.370604,0.51098,-0.903183,-0.22047,0.90055,-1.036,-0.0490605,-1.30968,-0.342994,0.0256285,-1.10128,-0.371272,-1.12348,-0.153793,0.424629,-1.26587,0.627445,1.064,0.283146,-0.227641,-0.301036,-0.434224,-0.278257,-0.371453,-0.435167,-0.0624196,-0.263906,1.33502,-0.270707,-0.149653,-0.0589401,-0.070293,-1.10261,-1.2319,-1.37293,0.556381,-1.21943,-0.459522,0.00261452,-0.267039,-1.17878,-1.21281,0.825143,-1.0768,0.0120001,0.0708512,-1.17048,-0.30727,-0.0755371,0.463102,-1.5383,-0.92651,-0.72136,0.0238175,-0.103344,0.234559,-1.72208,-1.04304,-0.428785,-0.292057,-0.539521,-0.934601,0.761806,-0.31426,-0.992455,0.613901,-0.489635,-1.21378,-0.0297107,-0.0838231,0.0245432,0.131211,-0.813658,-0.0242823,0.314363,-0.702307,-0.354901,0.565548,-0.382843,-1.10544,-0.14304,0.615845,-1.05899,-0.946325,-0.37365,-1.52763,0.091881,-0.533651,-1.4247,-0.890263,0.44758,-0.682993,-0.832229,0.50944,-0.855976,-0.892227,0.283611,0.196111,0.101405,-0.348177,-1.28871,-0.726216,-1.42774,-0.000825234,-0.321897,0.822508,-0.12644,-0.202203,-0.30587,0.137898,0.192832,0.276485,-0.300755,-0.0215904,0.520911,-0.935028,0.410945,0.0623346,-0.217687,-1.27902,0.434706,-0.307725,0.0599878,-0.616464,-1.35764,-0.00579782,-0.0529917,0.705943,-0.655765,-0.449999,-1.18228,-0.475434,-0.894157,-0.958941,-1.19323,-0.0282103,-1.00372,0.770333,-1.24564,-1.08011,-0.198453,0.587643,0.189265,-1.6862,0.156334,0.123381,-0.819886,-0.883653,-0.589576,0.281767,0.0168884,-0.709703,-1.22738,-1.01996,-0.308044,-0.905315,-0.385434,-0.550413,-0.726738,-0.237994,-1.37767,-0.19837,-0.964643,-0.834251,0.0905444,-1.36342,0.032402,-1.31822,-0.607567,0.24504,-1.22022,0.697429,-0.103404,-2.35222,0.761696,-0.750513,0.286006,-0.984809,-0.67741,-1.35213,0.402713,0.17658,-0.238954,0.811291,-0.455594,-1.10469,-0.896326,0.16702,-0.398809,-0.140274,-1.01559,-0.790694,0.416764,-0.08641,0.86508,-0.676339,0.316314,-0.284846,0.133265,-1.37351,-1.2935,0.559591,-0.597183,-0.517258,-1.27695,-1.43511,0.01381,0.235003,-0.7367,0.386804,-0.625664,-1.74821,-0.320368,0.193985,-1.35901,1.5399,-0.00486586,-1.34054,-0.273904,-0.663137,0.729824,-0.168798,0.471808,-0.391731,-0.359182,-0.744799,-0.948795,-0.320677,0.308741,0.413363,-0.585014,0.0208805,0.803909,0.195269,-0.45391,-1.10565,-1.46092,-1.37552,-1.26038,-0.693755,0.47263,-0.639838,-1.02868,-0.437958,-1.22392,-0.750422,0.280887,-0.126605,-0.28053,-0.892803,-0.979426,-1.26508,-1.25629,-1.29793,-0.0297997,-0.355117,0.375704,-0.454948,0.530774,-0.968574,0.595105,0.32409,-1.5279,0.345096,-0.286754,-0.37721,0.405241,0.053932,-0.299328,0.184174,0.355226,0.111517,-0.488289,-0.497349,-0.899413,-0.503387,-0.259382,-0.364171,-1.20717,-1.00746,-0.0167264,-0.744479,-1.0857,-1.7025,-0.755562,-1.34499,-0.170971,0.468218,0.409935,-0.24773,-1.16153,0.174373,-0.939483,-0.579741,-0.351345,0.240774,-0.108443,-0.203606,-0.602979,-1.16452,-0.392935,-0.941522,-0.860514,0.185176,-0.515226,-0.381629,0.464451,-1.0992,-0.937078,-1.33913,-1.10157,-1.29767,-0.482061,-0.334533,-1.13368,0.135528,-0.492483,0.219645,-0.336058,0.0267389,-1.0793,-0.155205,-0.898642,-0.404595,0.636026,0.613798,-1.07545,-0.0135023,-0.0302638,-0.22372,-0.976369,0.627057,-0.0831806,-0.999698,0.0277966,-0.75016,-0.132509,-0.0348203,-1.11675,0.00709444,0.131417,-1.18445,-0.313519,-1.11206,0.263656,0.128135,0.0287945,-0.588949,-0.544568,-0.731579,0.47565,-0.119051,0.295077,1.08015,0.936369,0.749647,0.42034,0.718601,-0.553578,-0.94543,-1.03462,-0.726531,-1.23738,-1.07681,-0.904478,0.359933,-0.691844,0.332689,-0.624291,-0.698788,-0.457277,-0.781192,-0.586037,-1.38188,-0.747708,-0.990228,0.708054,0.00899482,-0.220816,-0.816907,-0.848669,-1.22123,0.403831,1.20496,-1.06787,-0.0330646,0.269306,-1.04123,0.21932,-0.904189,0.224163,-0.946584,-1.03037,-0.103676,-0.955037,-0.459274,-0.311476,-0.275502,0.549441,-1.83566,0.0829208,-0.797936,-0.996753,0.10803,-0.177763,-0.52343,-0.232909,-0.54286,-0.636378,-1.00018,0.530591,-0.712247,-0.482356,-1.00756,-0.269579,0.168925,-0.936638,-1.05457,0.453879,-0.131006,-0.601213,-0.20549,-1.24011,-0.00810387,-1.14442,-0.92645,0.328894,0.145098,0.67729,0.806863,0.414853,-0.415218,-1.10082,0.155312,-0.156985,-0.256039,-0.559749,-1.28554,0.795128,-0.70617,-1.33566,-0.0427553,-0.907724,-0.565198,-1.28025,-0.284443,-0.953286,-0.261526,0.282112,-0.793387,-0.399708,-1.03513,0.118393,-0.282337,0.836261,-0.212852,0.143445,0.47776,-0.184699,-1.24902,-0.538723,-0.968018,0.442782,-0.437643,-0.861031,-0.967247,0.40827,-0.266405,-0.723444,0.366597,-0.826905,-0.586562,-0.634588,0.0411201,0.636623,0.441969,-0.859822,-1.65392,-0.832966,-1.19841,-0.54188,-1.18163,-0.735069,0.926416,0.485536,-1.10583,0.0123711,0.178611,0.523621,-1.21493,-0.689691,-1.58574,-0.708686,0.446814,0.0969194,-0.530666,-0.756226,-0.358156,0.525737,0.0585634,-0.631494,-0.391243,-1.22729,0.471047,0.972622,0.205439,-0.354275,-0.469916,-1.20043,-0.171549,-0.763254,-1.03185,-1.1898,-0.227814,-0.699338,0.362524,0.622074,0.0348447,-0.0476739,-0.340808,-1.20479,0.0350314,-0.0856796,-0.73,-0.106913,-0.4863,-0.0477464,0.85041,0.41829,-0.610611,0.0497477,-0.562456,0.813517,-0.40384,-1.06499,1.36453,-0.157454,-0.271282,-0.88671,0.019361,-0.955785,-0.548711,-1.13479,-1.14297,-1.1619,-0.726898,-0.817577,0.397896,-1.16418,0.415902,-0.858302,-0.601507,-0.286784,-1.21533,-0.270318,-1.34636,-0.22469,0.0184483,0.0387083,-0.156989,0.0200201,-0.0133151,0.894854,0.534317,-0.636054,0.983302,0.293664,0.471618,-0.337001,-1.10494,-0.721026,-0.170535,0.261949,-0.854653,0.627527,0.0770001,0.275735,1.60958,-0.627132,1.27135,0.390908,0.248168,-0.477892,-0.0894408,0.00656861,0.806935,-0.599467,0.803761,-0.525795,-0.469132,-0.414284,-0.90049,1.07432,-0.890491,0.145494,0.343456,0.613909,0.245699,0.194169,-0.485134,0.739942,-0.84635,0.533257,-0.263655,0.133315,0.428814,0.559313,-0.359412,-0.00800582,0.318669,-0.656746,0.119255,-0.231958,-0.593127,0.740975,-0.800715,-0.672778,1.29281,-1.62197,0.010032,-1.30183,-0.38178,-0.833092,-0.76096,-0.513779,0.102959,-1.3102,0.079733,-1.18489,0.840206,-0.613902,0.679085,0.786305,-1.45253,-0.45063,-0.330437,0.618877,1.27729,0.218008,-0.542092,-0.633665,0.157131,0.706666,0.521576,-0.172216,-0.266967,0.317739,-0.919016,-0.365343,0.519679,-0.269529,-0.625377,-0.239484,-0.063815,0.0340592,-0.502868,-0.0346971,1.10816,0.307145,0.0673949,0.697282,0.0884535,0.739532,0.561668,0.425529,0.324183,-0.425086,-1.11462,0.153265,0.573277,0.937636,0.316895,-0.390672,-1.25574,-0.180509,-0.434588,0.894602,-0.279822,-0.271706,-0.904039,-0.660005,-0.310673,0.547499,0.385128,-0.413216,-0.330168,0.637103,1.6107,0.709368,-1.00114,0.222746,-0.320811,-0.61004,-1.26491,-0.756866,0.877682,-0.00904354,-0.432656,-0.936793,-1.18738,-1.39598,-0.92374,-0.231811,0.339679,0.187785,-0.169102,0.193242,0.317106,0.817493,0.074826,-0.395594,-1.44959,0.0823702,0.732719,0.529062,-1.02592,-0.690297,-0.648917,0.846967,1.09479,0.452903,-0.210736,0.40503,0.90801,-0.971363,-1.81192,0.27082,-1.00185,-0.428209,-0.0215454,0.353067,-1.01373,0.630481,0.29566,0.526446,0.559915,-1.0355,-0.262693,0.830051,-0.742842,1.0113,0.133674,-0.774294,0.286073,-0.593688,0.191959,-0.121246,-0.246784,-0.407997,-1.09048,0.823753,-0.329026,0.83909,0.456202,0.987879,-1.09298,0.562322,-0.322736,-0.348431,-0.824309,-0.439535,1.06893,-0.549386,-1.30726,-0.0785854,-0.956182,1.07737,0.823697,-0.122251,0.642123,0.76282,-1.00033,-0.196341,0.608316,0.963228,0.200272,0.93478,-0.791581,0.513007,0.308141,0.291673,0.341822,0.222553,-0.33938,0.0389098,-0.00278975,-0.0407525,0.282376,-1.46072,0.357135,0.34364,0.121123,0.756294,-1.69784,0.418031,1.66273,-0.890801,-0.00587025,0.174567,0.1304,-0.483367,-0.572736,1.37497,-0.18613,-0.623833,0.171381,-0.607453,0.805466,0.406104,-0.591917,-0.019003,-0.0132183,-1.04742,0.0592506,0.202518,-0.0748115,0.508709,-0.779956,-1.39013,0.848566,-0.660638,0.0328441,-0.552913,0.5563,-0.14651,-1.34105,0.0987521,0.00964644,0.0913825,-0.381953,-0.623826,0.61773,0.138407,-0.525302,0.181575,0.708521,0.34471,-1.13836,0.158821,0.272669,-0.917217,-0.269442,-0.707646,-0.391571,0.327707,-1.15316,0.669306,-0.132159,-0.422554,-1.60165,0.0282758,0.508084,-0.0241377,-1.32833,0.639162,-0.266345,-0.953473,-0.22391,-0.679477,0.543846,-1.52108,-0.380998,0.285675,0.446615,0.128137,-0.311346,0.218068,0.122659,-0.0227368,-0.663285,-0.0669,-1.5574,0.151326,-0.127807,-0.614463,-0.29688,0.571255,-0.65858,-0.459082,-0.0604176,-0.742135,-0.444236,0.0851098,-1.03291,-0.781966,-0.985241,0.11913,-0.547649,0.3136,0.657615,-0.82975,0.724662,-0.565125,-0.622288,0.146266,-0.672523,-0.0182725,-0.653162,0.316898,-1.14261,-1.03023,-0.568308,-0.932565,-1.19246,-1.22051,-0.290915,0.994477,-1.06846,0.382222,-0.868314,-0.421639,-1.2287,-0.750139,-0.637634,-0.0406192,0.0530839,-0.181139,-0.994398,-1.44813,-0.618939,0.313379,-0.766683,-0.167668,-0.414437,-0.755233,-1.04452,-0.0935741,0.425116,0.325581,-0.306556,-1.22549,0.614531,0.0991577,-0.348783,0.710861,0.374608,-1.03576,-0.0540425,0.651913,-1.12155,-1.21621,-0.0787035,-0.50803,-0.214623,0.385709,0.433368,-1.12048,-0.371511,0.443044,-0.802017,-1.2368,0.44352,-0.460231,0.202841,-0.758163,0.0461058,0.500894,0.111879,0.0889037,0.158534,-0.654236,0.397065,-0.385005,-1.17195,-0.679791,-0.490451,-1.26787,-0.394114,-0.703438,0.708647,-0.401864,-0.715142,-0.0188962,0.485593,0.910205,-0.528521,0.0448917,-1.30861,-1.15218,-0.142532,-0.958282,-0.974169,0.283846,-0.486578,0.281232,-1.09081,-0.611642,-0.0786086,0.45318,-0.823449,-0.991744,-0.962141,0.740424,0.188204,-0.581926,-0.54826,-0.880612,-0.659093,0.00891809,0.176868,0.0825496,-1.48152,-1.32828,-0.810391,-1.27247,0.679671,-0.072873,0.524678,0.242545,0.222561,-0.641937,-1.03688,-1.28906,-0.532974,-0.0461245,0.2307,-0.780014,-1.12319,-0.158941,-0.680679,-0.934616,0.39351,-0.362676,-1.1581,-0.371581,-1.45613,-0.124904,0.371745,-0.416524,-0.541059,-0.652333,0.785686,-0.132534,-0.614681,0.676266,0.0808048,-0.588247,-0.33476,0.130967,-0.987113,-0.730915,-0.554657,-0.923263,-0.634485,0.280206,-1.26786,-0.841514,-0.698381,-0.970659,0.461229,-0.134556,-0.681669,-0.175253,-1.46064,-0.265738,0.812206,-0.940038,-1.21447,0.0798741,0.0888383,-0.692425,-1.34031,-0.171939,-1.36962,-0.509366,-0.143716,0.0123499,-0.041907,-1.06924,-0.4392,0.314971,-0.096249,0.595078,-0.820644,-1.30286,-0.229052,-0.362462,-1.11525,-0.497852,-0.890086,-1.6216,-0.1431,-0.107126,0.0392614,0.535513,-1.36184,-0.418039,-0.991862,-0.698231,-1.29721,0.133717,0.276356,-0.777731,-1.0864,0.865738,-0.202045,-1.21356,-0.586976,-0.7144,-1.06092,-0.984619,-0.899131,0.334944,-1.06551,-0.605332,-0.505266,-1.26891,-0.140398,-1.40417,-1.14613,0.477834,-0.695613,0.485351,0.130587,0.527374,-0.554542,-1.5164,-0.772588,-0.00941083,-0.574296,-0.401724,-0.454607,-0.821894,-0.100723,-1.44101,-1.05163,-0.521616,-0.893852,0.987075,0.272499,-0.65701,-1.28204,-1.14266,-0.339379,-0.819612,-0.739507,-0.458725,-0.450655,0.501668,0.0685241,-0.17937,0.307074,-1.5325,-0.498577,-0.309103,-1.44495,-0.621886,0.0704667,-0.357748,0.300803,-0.935283,-1.59797,-0.292327,-0.328176,0.0521481,-0.427367,0.275462,-0.671643,0.114645,0.123322,-1.7468,-0.653035,0.378705,-1.44493,0.951338,-0.664196,-0.514221,-0.658944,-0.152334,-0.254971,-1.19755,-0.276975,-0.208823,-0.867283,-1.10609,-1.33052,-0.29344,-1.07276,0.372116,1.19838,-1.20797,-1.14531,-1.75542,-0.472426,-0.0243845,0.121968,-1.20242,-0.100209,-1.18775,-1.40597,-0.708964,-1.2162,-1.22918,-0.735782,-0.875839,-1.09557,-0.487798,0.379264,-0.996812,0.075491,-0.542724,-0.288019,-1.26521,0.453014,-1.06991,-1.33964,-1.03616,-0.705747,-1.22803,-1.42995,-0.841517,-0.524449,-0.865046,-0.55256,0.74704,-1.65125,-0.64694,-0.853371,-0.178192,-0.514036,-0.862996,0.201631,0.139844,-0.810036,0.116407,-1.55182,0.315301,-0.610334,-1.25484,-0.880485,-1.03699,0.534875,0.365984,-1.30002,-0.28233,-1.05298,-0.967612,-0.372498,-0.402238,-0.611092,0.306771,-1.24189,0.365377,-1.00721,-0.748326,0.890681,-0.903699,-1.13539,-1.68687,-0.694031,0.0680267,-0.485549,-0.717272,-0.67707,0.239964,-1.15367,-0.14001,0.342636,0.189831,-0.488052,-1.3027,0.51244,-0.944953,-1.73593,-1.35772,0.21191,-1.36379,-0.861165,-0.656277,-0.0410206,0.226038,-0.14784,0.133367,0.087566,-0.225098,0.0123378,-0.260037,0.219394,-0.372732,-0.0966989,-0.550728,-1.27217,-1.35241,0.892581,-0.079923,0.865723,-1.29277,-0.813986,0.00371274,-1.48958,0.52673,0.090083,-1.42192,-1.04448,-0.107309,-1.16773,-1.89227,0.178195,-0.561028,-0.157601,-0.802745,-1.06538,0.836563,-0.878083,-1.54857,-0.340818,0.131019,-0.41787,-0.875856,-0.212542,-0.873826,-0.00961184,-0.0619572,-0.886654,-0.166099,-1.20032,-0.907624,0.330852,-0.233465,-1.44821,0.519231,-0.0496841,-0.0932641,-1.15166,0.110444,-0.320269,-0.919412,0.513632,-1.06725,-0.466058,-0.496627,0.232222,0.0287237,-0.660436,-1.17679,0.49291,-1.39439,0.788585,-0.101234,-0.772913,-0.895152,-0.0862372,-0.96022,0.714713,-1.04229,0.332956,-1.07209,-0.828873,0.154012,-0.240918,-0.706188,-0.0735212,-0.246337,-1.343,-0.473247,-0.62943,-0.101815,0.387584,-0.910698,-1.20492,-0.61026,0.100952,0.631904,0.455768,-1.00715,-0.985165,-0.220656,-0.954437,0.414932,-1.03407,-0.157343,-0.96415,0.0125851,0.319267,-1.33172,-0.110978,-0.485897,-0.73377,-1.36887,-1.13363,-1.18895,0.117537,0.118404,-0.380607,-0.30881,-0.824847,0.362221,-0.74396,-1.21373,-1.04866,-0.693819,-1.1254,0.245517,-1.09672,-0.689512,-0.392606,-1.02262,0.390058,-1.04942,-0.93947,1.08914,-0.713164,-1.49025,-0.205992,-0.305579,-0.727271,-0.683467,-0.215368,-0.179765,-0.836624,0.0463976,-0.0963832,0.187798,-0.00746319,-0.843803,-1.29933,-0.0463032,-1.49087,-0.701786,0.24569,-1.38304,-0.247279,0.578576,0.259855,0.0188023,-1.17669,-0.257533,0.117267,0.480195,-0.147993,0.168448,1.02511,-0.850969,0.388283,-0.664403,-0.809657,-0.785276,0.170179,1.04535,0.983405,-1.12698,-0.159493,-0.00197502,0.0177523,0.509659,0.353638,0.320258,-0.761326,0.229405,-1.1279,-0.372119,0.270355,0.135798,-0.740137,0.0969986,-1.00934,-0.456501,-0.674784,0.149993,-0.891668,0.194277,-0.105788,-0.854243,0.239602,0.0129791,0.680841,-0.963252,0.265392,-0.479718,-1.24385,0.159756,-0.809408,0.0916641,-1.23604,-1.09698,-0.0305266,0.406209,0.698502,-1.21447,-0.0510479,-1.07254,-0.343894,-0.436117,0.220614,0.00733471,-1.06816,0.182417,-1.09963,-0.836215,-0.0132711,-0.422985,0.893071,-0.810753,-0.206512,0.0141794,0.353695,-0.631384,0.673966,0.806877,-0.115306,0.554557,-0.15914,-1.2846,-0.171951,0.432909,-1.16289,-1.00874,0.0156096,-0.878726,-0.503654,-0.609568,-0.886848,0.148745,0.431287,0.649724,-0.495031,0.837592,-0.130959,0.257927,-0.70523,-0.900025,-0.454269,-0.79465,-0.0707768,0.382636,1.04254,-0.115303,-1.20025,0.387797,-0.567286,0.309758,0.243966,0.556677,0.139903,-0.273801,-0.224011,0.796957,0.174402,-0.843521,0.649588,-1.21729,-0.226129,-0.916183,0.654354,-0.424561,-1.12996,-0.632301,-0.266537,0.580666,-1.23083,0.218266,-1.11931,-0.841571,0.36208,1.00699,-1.5364,0.0249473,-0.351636,-1.17349,0.299172,0.548926,0.79256,-0.362431,0.163642,-0.517821,-1.15468,-0.59537,-0.898247,0.3792,-0.282278,-0.82027,0.0460758,-1.13838,-0.240556,0.0552069,-0.442335,-0.224309,-0.951271,0.684898,-0.511317,-1.02754,0.00893636,-0.167156,-0.688923,-0.361087,-0.0938021,-0.494603,-0.482751,-0.806445,-0.379036,0.672873,-1.2635,-1.1013,-0.401829,0.290986,0.0921477,0.424503,-1.44247,-0.308529,0.123794,-0.0430447,1.72343,-0.963833,0.129517,-0.0575708,1.06962,-0.308129,0.266108,0.746323,-0.562406,-0.917385,0.805495,-1.16077,0.456727,-0.488152,0.136755,0.245297,-0.0214069,0.35407,0.305852,-0.704633,0.0162062,0.317114,-0.824728,-0.550832,-0.171998,0.170655,0.55951,0.505472,0.434099,-0.527637,-0.655944,0.026247,-0.384439,-1.08286,-0.464492,-0.94985,-0.326648,1.28801,-1.24223,0.649857,-0.108883,-0.928496,0.823686,-0.500393,-0.825734,-0.575293,0.190411,-0.988965,-0.901894,-0.371206,-0.811677,0.419709,-0.891559,0.0791432,-0.911546,-0.447854,0.418006,-0.895359,0.415041,0.14869,-0.195466,-0.901296,0.354501,0.65728,-0.0113294,0.844178,-0.939303,0.0791585,0.112518,-0.222431,-0.258945,0.426269,-0.933397,-0.207716,-1.44804,0.590873,-0.211063,0.56884,0.533614,0.456694,-0.493373,0.408172,0.129923,-0.702028,-0.801023,-0.0241176,-1.41341,-1.13558,0.320214,-0.0570532,0.6299,-0.791696,-0.118731,-0.875071,-0.369919,0.686003,-0.602655,0.238063,0.528774,0.519373,0.80898,-0.582155,-0.0184588,-0.546167,-0.066912,0.514078,-0.757778,-1.06848,-0.521377,0.571615,0.266497,-0.321072,-0.519225,-0.207577,0.0490251,0.901558,1.25721,-0.465952,0.505372,0.150958,0.238216,-0.23318,0.848395,-0.688686,0.533856,-0.749024,0.0465006,-1.07422,-0.668594,0.85991,0.857187,0.370131,0.124794,-0.292633,1.1838,-0.357377,-0.156687,-0.78004,-0.550546,0.169472,-0.999268,-0.157652,-1.29893,0.849395,0.63657,0.364798,0.976652,0.167268,0.746238,0.365355,-0.193348,-0.380036,-1.11815,-0.642396,0.405613,-0.649005,0.111385,1.04459,-0.71765,-0.802057,0.398316,0.400015,0.652514,0.0626433,-0.904424,0.446978,0.748941,-0.0207211,0.472666,0.0372417,-0.316386,0.608258,0.426116,0.149372,0.660419,-0.564426,-1.41424,0.116564,0.560054,-1.24501,0.124184,-0.478043,0.506168,0.0963666,0.675385,-0.449764,0.184541,-0.151199,-0.936006,0.0266025,-1.26818,0.976032,-0.374233,-0.507348,0.03777,1.06471,0.844845,-0.0814247,-0.293454,0.585898,0.702232,0.373244,-0.470181,0.18071,-0.828678,0.18388,1.4976,0.0555783,-0.697087,0.982847,0.15881,-0.298709,-0.427107,0.0657187,0.54105,1.3475,0.245438,-0.282244,-1.18554,1.08807,0.672175,0.0234771,0.530982,-0.389823,-0.0674687,-0.435175,-0.841169,-0.166933,0.423931,0.0664205,-0.289856,-0.143,-0.106602,-0.893687,-0.389916,0.105844,0.443257,-0.822657,-0.847298,0.600399,-1.13111,0.896952,-1.01726,-0.036991,-0.577397,-1.16248,-1.06488,1.39634,-0.132207,-0.489094,0.848295,-0.3124,0.616304,0.695688,-0.115636,-0.989829,-1.0898,-0.0999191,-0.486597,-0.145567,-0.398647,-1.45199,-0.52463,0.178309,-1.07223,0.0610705,-0.680498,0.0240544,0.0786214,-0.591922,-0.403233,0.558874,-0.835575,-0.128229,-0.9124,-0.584712,0.325531,-0.277711,-0.462434,-0.877104,0.192803,-0.649127,0.0736262,-0.119817,-1.25103,-0.620495,0.334286,-0.319251,-0.590725,-0.398116,-0.556583,0.0420638,-0.17696,0.170219,-1.17147,-0.0701526,-0.338653,0.197202,-0.403136,-0.801113,-0.6704,-1.12841,-0.888512,-0.373857,0.555296,-0.265302,-1.36241,0.128794,-1.27937,-0.275441,-0.73506,-1.13727,-1.28417,0.606405,0.325446,-0.524013,-0.616082,0.250483,-1.54711,-0.243028,-1.16782,-0.455448,-0.612971,0.21448,-0.888392,0.087474,-0.300537,-1.43748,-0.0605879,-0.692289,-0.750797,0.265814,-1.07379,0.0424761,-0.563106,-0.622703,-0.46694,-0.328645,-0.66751,-0.20234,-1.41343,-0.230737,0.143623,-0.601898,-0.365743,-0.10767,0.115256,0.703189,-0.677272,0.331687,-0.296892,-0.569743,-0.948207,-1.40387,-0.0863084,-0.155917,-1.29819,-0.821369,0.234799,-0.204797,-0.711622,-1.30995,-0.391956,-1.09514,0.171151,-1.12245,-0.335255,-1.26964,0.107987,-1.32718,0.120993,0.65925,0.274532,-0.450883,-0.810953,-0.73499,-0.668804,-1.19006,-0.942584,0.0848872,0.523563,0.458646,-0.621277,-0.845608,-1.32298,-1.24966,1.15902,-1.12845,-0.965828,-0.0261127,-1.47819,-1.05983,-0.166162,-0.0463143,-0.434557,-0.043245,0.411604,-1.16977,-0.0842213,-0.150593,-0.759415,0.0541052,0.301615,-0.778617,-0.949673,-1.48104,-0.804387,-0.367002,-1.15069,-0.324241,-0.648247,-1.25908,-0.432863,-0.151471,-0.648142,0.0760212,0.621887,-0.812999,-1.60193,-0.628295,-1.2236,-1.42475,-0.101261,0.674955,-0.242773,-1.04475,-0.14362,-0.357829,-0.804065,-0.539354,-0.570579,0.121288,-1.20222,-1.2673,0.445783,-0.729416,-1.56047,-0.876459,0.350238,-0.991287,-0.0227019,-1.0323,-0.566997,-0.476487,0.142035,0.233545,-0.943037,0.677191,-0.797104,-1.01915,-1.31989,-0.531255,-0.902244,0.703252,-0.616229,-1.12185,-1.09789,-1.28356,0.0192368,-0.115945,-0.161402,-1.30154,-0.312331,0.0884506,-1.16134,-0.570896,-1.15028,-0.915707,-0.00135655,-1.35257,-0.428005,-0.21138,-0.916297,-1.35092,-1.17335,-1.00287,0.140037,-0.698122,-1.33234,-1.13871,-0.0985638,-0.725662,0.0459841,0.436922,-0.814635,-1.20252,-1.42612,-0.44625,-1.18458,0.0352628,-0.978823,0.355242,0.394731,0.00791941,0.0773873,-1.24447,-1.03307,0.284903,-0.636075,0.407048,-1.41507,-1.02438,-0.318142,-0.914992,-1.37098,0.00366725,-0.329061,0.753028,-1.16094,-0.350359,-1.0556,0.159865,0.52348,0.315704,-0.178371,-0.842493,-0.711932,0.0145623,0.520027,-0.307098,0.295549,-0.928153,-0.0429663,0.0389715,1.09363,-1.28199,0.161583,-0.700039,0.745071,-1.4511,-1.02141,0.290235,-1.05914,0.444835,-0.455532,-0.802323,0.0413727,0.39915,-0.639307,0.261605,-0.394703,-0.204965,-0.504929,-0.693537,-0.339918,-0.595172,0.0432256,0.256473,-1.05357,-0.0249303,0.514566,0.435498,0.291118,-0.674224,-0.353124,-0.233475,-0.816303,1.30424,-0.356664,-1.16668,-0.988891,0.144494,0.856665,-0.32268,-0.26408,-0.706936,-0.89873,0.745118,0.62018,0.338085,-0.215367,-0.349616,-0.499678,0.906481,0.101469,0.0912119,-0.707794,0.052835,-0.836455,-0.221162,-1.36489,-0.778268,0.8053,-0.0373616,-0.5814,-0.544613,-0.20665,-0.661011,-0.609118,0.567761,-0.356072,-0.30667,-0.00162326,-0.362973,0.286371,-1.16945,-0.106289,-0.719084,0.982319,0.27344,-1.22163,-0.460432,0.947697,-0.149391,-0.794688,0.445017,0.631085,-0.177625,-0.732231,-0.80716,0.0845417,-0.354344,-0.811175,-0.173004,-1.08543,-0.499559,0.625632,-0.210229,0.084004,-0.865759,-0.0046811,-0.638996,-0.347329,-1.15301,0.00939471,-0.674036,-0.711643,-0.754277,-0.395625,-1.37471,0.0997993,-0.101212,-0.321042,0.416439,0.192675,0.169983,0.0867504,0.67744,-0.928915,0.213318,-1.12256,0.254996,-1.10108,-0.692952,-0.453343,-1.08568,-0.270332,-1.28012,-0.56548,-0.295038,-0.405565,0.304655,-0.409057,0.930505,0.567475,-1.08223,-0.790978,0.521314,-0.988913,-0.0016914,0.531634,1.22193,-0.476153,-0.81312,0.23228,-1.1536,0.693853,-0.513617,0.431631,0.759149,-0.9572,0.850208,0.0107739,-0.680632,-1.69191,-0.803162,-0.552785,0.420729,-0.355398,0.05904,0.750045,0.15282,-0.362747,-0.786563,-0.139746,-1.12371,-0.541099,0.313235,0.34724,-0.29605,-0.250877,-0.00877624,-0.0145478,-0.0041431,0.604177,-0.450692,0.602221,0.312059,0.732566,-0.31499,0.312091,0.630661,-0.410838,-0.410438,-1.24524,-0.328319,-0.121641,-0.48622,-1.09835,0.98218,0.344455,-0.960678,-0.304362,-0.950067,-0.533951,-1.12622,-0.895371,0.436413,0.419374,0.548038,-0.622511,-0.792604,-0.152612,0.807023,0.916571,-0.423808,-0.687556,-0.178836,-1.01542,-1.03348,0.719248,0.599593,0.571504,-0.550517,-0.588731,0.338105,0.407146,0.494177,-1.02353,0.666768,0.287324,0.331202,0.201426,-1.06884,0.798465,-0.890887,-1.00656,-0.951714,1.39709,0.716798,0.91108,-0.673585,-1.29328,-0.137682,-0.816081,0.980583,0.70455,-0.102654,-0.218103,-1.24501,-0.091304,-0.271273,0.954066,-0.258758,0.206903,-0.487862,-0.79523,-0.440881,-0.984421,-0.585172,-0.95014,0.10976,-0.720174,0.458941,0.481421,-1.05123,0.709744,-0.0264093,-1.3589,0.165239,-0.0299662,-1.17765,-1.14521,-0.0222545,0.124603,-0.916347,0.0453636,0.11421,-0.0151152,-1.25767,0.0464247,-0.603673,-0.0321727,-0.404385,0.26038,-0.764711,0.241712,-1.18094,-0.413046,-1.42383,0.0768437,0.391036,-0.190019,-0.266945,0.415436,-0.424294,0.424139,-0.572685,-1.61346,-1.01664,-0.647648,-0.629944,-0.45413,-0.209905,-0.704773,-0.845599,-1.3899,-0.56906,-1.29856,0.353657,-0.371173,0.234694,-0.701872,-0.805776,-0.789974,-0.807193,-0.388485,-0.659659,-0.479603,-0.662455,-1.08382,-1.1571,-0.827882,-1.45201,0.145544,0.283062,-0.709569,0.382748,-0.490783,-0.125307,-1.21778,0.0357011,-0.728838,-0.311788,-0.227197,-1.68286,-0.404027,-0.288328,-0.69164,0.0984383,-0.146503,-0.748847,0.449829,-1.37141,-0.0552967,-1.3878,-1.09902,-0.340022,-0.0743539,0.791517,0.330103,-1.53726,-1.54432,-1.20092,-1.43052,0.107809,-0.702682,-0.830764,-0.34765,-0.61388,-1.49447,-0.412625,-0.729549,-0.695606,-1.40328,0.40522,-0.348195,0.566764,0.0877032,-0.927556,0.387959,-1.37872,-0.119757,-0.619347,-0.658136,-0.923827,-0.315786,0.397213,-0.110981,-0.879731,0.0908132,0.48503,-1.14078,0.637943,-1.5469,-0.907444,-0.258581,-1.78114,-1.51234,-1.09303,-0.520579,-1.00474,0.148531,0.620712,0.177285,-1.63211,-0.130331,-0.500081,-1.818,-0.315953,-0.370805,0.340274,1.0057,-0.91155,-0.579687,-1.02746,0.0244939,-1.08838,-1.08905,-0.427804,-0.750126,0.00456121,-1.31094,-0.223222,0.0363598,-1.03645,-1.33592,-0.444354,-0.751019,-1.02144,0.192125,-1.36183,-1.04976,0.267947,0.670405,-0.899258,0.393261,0.339322,-0.140636,0.384728,-0.51372,-0.754529,0.229722,-0.899642,0.475151,-0.891078,-0.321184,-0.289513,-0.485282,-0.609234,-1.45244,0.229727,-0.356208,-0.585178,-0.83726,-0.388634,0.653876,-0.138264,-1.79313,-1.38116,0.0902537,0.279152,-1.07977,-1.27728,0.118517,-0.893174,-0.561214,-0.526066,-0.935168,-0.959173,-0.196106,-0.227394,0.28001,-0.779328,-1.39645,-0.117652,0.229506,-0.407404,-0.929941,-1.32614,-1.38961,-0.627095,0.433524,0.216423,0.794666,-0.716733,-0.912471,0.371014,-1.12253,-1.07744,-1.41892,-1.42716,-1.24688,-0.502978,-0.575311,0.284319,0.240642,0.199252,-0.51023,-1.07225,-0.716962,-1.67654,-0.264183,-1.39554,-0.745862,0.0447487,0.0366419,-1.37284,-0.664663,-1.01162,-1.23694,-0.534637,0.298577,-1.18435,-1.27397,-0.155472,0.28294,-0.414938,-0.386699,0.0616485,-0.10317,-0.311458,0.147609,0.444732,-0.912429,-0.964395,0.436041,-1.17748,-1.23394,-0.867673,-0.973196,-0.718589,-1.02692,-1.4118,-0.760563,0.0284112,-0.413754,-0.42487,0.776892,-0.445244,-0.430224,-1.72912,0.589818,-0.522344,-1.01229,-0.825428,-1.93026,0.00755707,-0.521856,0.426093,0.49613,-0.105355,-0.440569,0.287872,-1.00529,0.706566,0.119546,-0.94949,-1.69265,-0.826966,-0.0459096,-1.00474,-0.59588,0.162038,-0.542933,-1.16576,-0.165382,-0.889579,-0.185985,-0.310432,-0.750908,-0.531186,-0.301576,-0.812939,-0.638098,-0.140452,-1.03067,0.41746,0.894219,0.420955,-0.515515,-0.564632,-1.55193,-1.31579,-1.05411,-0.38148,-0.989567,-1.33392,0.147448,-0.763829,-1.40322,-0.420743,-0.860981,0.402741,-1.55638,-0.202936,-1.5499,0.374139,0.384857,-0.0403587,-1.58871,-1.50424,0.16826,1.17593,-0.415239,-0.0824633,-0.260478,0.16994,-0.808549,-0.288208,-1.24497,-0.797054,-1.52411,-0.829871,-1.03503,-1.26275,0.461085,-0.195688,-0.0637181,-0.0203768,-1.77725,-0.0517458,-0.357762,0.636535,0.92054,-0.934127,-0.709076,0.193747,0.707405,-0.480039,-0.4642,-1.5087,-0.131557,-1.44507,-1.71028,0.263107,-1.51702,0.824428,-0.921439,-0.0892149,-0.244928,-1.12891,0.354837,-0.739887,0.222947,-1.1228,-0.209633,-0.0539783,-1.18503,-1.19258,-1.49698,0.735587,-1.3857,-0.756686,-0.507172,0.503053,-1.45243,0.161699,0.552511,-0.0322289,-1.48534,-0.390398,-0.0257354,0.135376,-0.160814,-1.26099,-0.890816,-1.64629,0.330223,-0.0160546,-0.378944,-1.62022,-0.597619,-0.758329,-0.70904,0.443841,0.00345778,0.766759,-0.691102,0.438161,-1.05516,-1.13479,-0.41006,-1.83061,0.782637,-0.710125,0.182723,0.043956,-1.50113,0.927051,-0.691837,-1.2955,-1.33555,-1.03981,0.885701,-0.497266,-0.715739,-0.820471,-0.706457,-0.348702,0.729395,-1.69732,0.560367,-0.561571,-0.526678,0.0937018,-1.16768,-0.529658,-0.430583,-0.256783,1.34279,0.356695,-0.602301,-0.0780132,-0.486741,-0.368862,1.06282,0.613864,-1.65047,-2.40975,0.380008,0.14065,-0.852282,-1.47749,0.157415,-1.32671,-0.699201,-1.34273,-0.42951,0.384299,0.568622,-1.00547,0.526641,-0.171364,-0.466404,-0.814083,-0.930129,-0.717853,-0.614368,-0.820604,-1.88266,-0.137071,-0.645846,-0.0575946,-1.39349,-2.48127,0.332983,-0.852703,-0.215482,-1.2439,-0.414008,0.0358825,0.405209,-1.06588,0.5059,-0.229949,0.181061,-0.694976,0.543485,0.0918618,-1.88577,-0.294148,-1.28357,-1.0219,-1.10472,-0.479857,-1.11346,0.47904,0.598098,-1.36325,0.243886,-1.59116,-0.726317,-1.45336,-1.44945,-0.0653756,-0.412843,-0.343423,0.11199,-1.37153,-0.221638,-1.02963,0.943609,-0.366553,-0.310881,0.231827,-1.42202,-1.10425,0.701981,0.644565,0.461502,-1.10059,-1.05389,-1.11862,-1.24574,0.284416,-0.470207,0.627953,-0.598,0.2707,0.204669,-1.76468,-1.03613,-0.602161,-0.907501,1.44569,0.918217,-0.806871,-0.452743,-0.137341,-0.354815,-0.841851,0.287074,-1.01311,0.0595933,-0.828976,0.440692,0.359988,-0.933777,0.719373,-0.190604,-0.853552,0.403756,-0.371469,-0.821691,-0.708429,-1.19671,0.638453,-1.28254,-0.328825,-1.08799,-1.61631,0.46425,-0.128914,-0.501141,0.467942,-0.440996,-1.00944,-0.345875,1.56664,-1.75253,0.440945,-1.35177,0.0986247,0.311578,0.202174,-0.673482,-0.274301,-0.485374,-0.629017,-0.691831,-0.367968,0.622667,0.0467103,0.513336,-0.723573,0.131747,-0.471128,-1.38715,0.248164,-1.20501,-1.50073,-0.0907057,0.407428,-0.261787,-0.448987,0.602596,-0.475359,-0.419104,-0.818801,-1.46068,0.183977,-0.0805105,-0.943305,-0.778196,-0.0495251,0.0475901,-0.147176,-1.05999,-0.163983,-0.358712,-0.128968,-0.284079,0.319544,-1.15184,-0.999994,-1.96542,0.471254,0.653906,-1.48258,0.624999,1.01483,-0.842532,0.113292,-0.0850921,-1.08821,0.414734,0.74184,-0.562629,-0.520596,-0.494065,-1.16176,-0.938323,-0.581288,-0.766113,-0.692868,1.51454,-0.966128,-0.0523846,-0.693707,0.253694,-0.530884,-0.0342316,-1.00903,-0.0600271,-1.54964,-0.566265,0.703019,-1.24485,-0.790906,-0.0433603,0.375229,-1.91651,1.40543,-0.763484,0.0488603,-1.84775,-0.987743,-0.109234,-0.873185,0.0544282,-1.00669,-0.269467,0.461008,0.0171874,0.694117,-0.858745,0.455475,-0.700687,-0.966688,0.580071,0.498917,0.365224,0.487899,0.901068,0.103113,-0.250108,-1.00539,-1.51171,0.452883,-0.995343,-0.221664,-1.15156,-0.823651,0.176462,-1.06617,-1.20254,0.5396,0.447035,-0.222206,0.698907,-1.31682,0.944395,-0.31286,-0.525341,-0.228897,-0.708128,-0.119561,-0.208989,0.221975,-0.449386,0.258454,-1.17735,-1.12478,-1.51574,0.841981,-0.143946,1.09609,-1.88501,-1.45877,1.92235,-0.483588,-0.668343,-0.591817,-0.0979178,-1.19691,-0.792817,0.515119,0.366976,-0.49443,0.221348,-0.0665813,-0.596772,-0.324979,-0.982139,0.46639,-0.030011,-0.705216,-0.331169,-0.19606,-0.4456,0.79439,-0.760045,0.188103,-0.677392,-1.92322,0.165565,-1.0694,-0.915397,0.473641,0.686936,-1.0865,-0.898421,-0.557152,-0.187911,0.540741,-0.120961,0.0571202,0.825409,-1.23107,-1.10835,-0.0993825,0.991465,0.15986,-0.120473,-1.03231,-1.04009,-0.476991,-0.72646,0.62205,0.360626,-1.862,0.534098,0.248372,-0.674314,-1.0467,-0.0971101,-0.336389,-0.946717,0.567762,-0.79435,0.679438,0.226409,-0.355292,-0.953214,-0.913721,-0.644721,0.155416,0.203171,-0.586024,-0.303544,-1.04035,-0.383378,-0.414921,0.39978,-0.859384,0.157761,-0.529134,-0.802936,1.12873,-1.07127,-1.54379,-0.770984,0.376768,0.2324,1.29273,0.449126,0.287957,0.201199,-1.0154,-0.0842364,0.261304,-1.65646,-0.714426,-1.16897,-1.16105,-1.1535,0.292826,-0.396505,0.41606,-1.05667,-1.16353,-1.5514,0.268079,-1.1831,0.49153,-1.36555,0.557627,-0.655313,-0.357517,0.571444,-0.430338,0.150561,-1.09509,-1.56097,-0.602957,-1.27374,-0.662006,-0.926675,0.0246523,-0.936421,0.555762,-1.15731,-0.947528,-1.13475,-0.45076,-1.38957,-0.52328,-0.938866,0.342878,-1.13199,-0.818194,0.116335,-1.12439,-1.20697,-0.572671,-1.33825,-1.38505,-0.649346,-0.540708,-0.239029,-0.413348,-0.293425,1.011,-0.811235,0.507479,-1.22376,-0.526612,-0.153844,0.0753028,0.0828313,0.63243,-0.444765,0.514289,0.801118,-0.663197,-0.165673,-0.674455,0.540033,-0.466826,-0.703026,0.475497,-0.251197,-1.61556,-1.25284,-0.0826773,-0.217409,-0.836373,0.542445,0.0250387,-0.854746,-1.33721,0.565355,0.284345,-1.17011,-1.00685,-0.763809,-0.39843,-0.480373,-0.993428,-1.48566,-0.451755,0.329539,-0.430766,-1.2904,0.0506883,0.850187,-0.410122,-1.02613,-0.176757,0.727675,-0.604446,-0.516314,-0.501864,-0.395976,-0.146778,-0.566412,0.321414,0.603487,0.738752,-0.660124,0.16298,-0.896807,-0.784939,-0.42555,-0.0278413,-0.766411,0.0175866,0.885209,0.0553338,0.0214546,0.612729,0.522584,-0.16902,-0.462751,-0.956222,-0.634989,-0.424043,-0.188119,0.0898826,-1.25157,-0.968897,0.696447,-0.383406,0.518389,-0.295146,-1.32012,-1.05896,-1.27699,-0.169161,-0.546401,-0.281299,-1.13255,-1.02641,-0.313848,-0.151453,0.302145,-1.45979,-0.449778,0.103803,0.285998,1.02247,0.0367082,-0.00930506,-0.204658,-1.35692,0.52835,0.483831,-0.567228,-1.09951,-0.135637,-0.272582,0.0164404,-0.462203,0.247543,-0.0913683,0.260724,0.47269,-0.0311746,-0.0596471,0.676276,0.0741424,-1.13389,0.0417024,-1.11658,0.72317,-0.770368,0.550438,-0.841204,-0.336771,-0.396619,0.263164,-0.11231,-0.495588,-0.488487,-1.12357,-1.1571,-0.533455,-1.19199,-0.340092,-0.0820393,0.303947,0.948972,-0.498703,1.01467,-0.689079,0.687363,0.264117,-0.21927,-0.324561,0.221723,-0.949211,-0.611698,0.39334,0.89054,-0.341273,1.52687,-0.875456,-0.729352,0.832532,0.226085,0.164901,0.285612,-0.546105,0.406594,-0.61312,-0.561687,0.908836,0.783422,-0.469464,-0.549168,-0.560291,-1.16229,-0.746151,0.104478,-1.21389,-1.4793,0.22599,0.341549,0.111321,-0.604491,-0.509088,0.893211,-0.0828396,-0.412656,0.356092,-1.51423,0.326315,0.484047,-0.489045,-0.533977,0.0900219,-1.31724,-0.869491,-2.14594,0.218202,-0.89868,-0.0419964,-0.141779,-0.873277,0.0248059,-1.01921,-0.58189,-1.62849,-0.491739,-0.0765903,-1.16678,-0.360857,-1.24774,-0.237919,-1.24116,-0.502985,-1.15811,-1.57968,-1.15293,0.0540622,-0.252949,-1.10083,-1.10796,-0.0994849,0.573968,-0.672068,-0.901492,-0.503154,-0.349177,-0.800593,-0.336947,-1.38048,0.947181,-0.477344,-0.959578,-0.0711746,-0.198081,-1.65926,0.362816,-0.925182,-0.611224,-1.39685,-0.0401043,-0.172363,0.214131,-1.25107,-1.08363,-1.31084,-1.26833,-0.655389,-1.66943,-1.2942,-0.0203908,-0.845971,-0.594421,-1.00751,0.26967,-1.59716,-2.0216,-0.812994,-0.517857,-0.205026,-0.109106,-0.785594,-0.779253,0.184124,-0.888899,-1.30517,1.0699,-0.740454,-0.270445,-0.733263,-0.858032,-0.634782,-1.01122,-1.25634,0.432476,-0.435551,-1.00051,0.0113653,0.324845,-0.908094,0.744815,0.0179104,0.185927,-0.234816,-1.26751,-1.10387,-0.191879,-1.48047,0.458651,-0.518975,-1.49458,-0.870009,-0.205644,-0.348411,-0.631375,-1.18159,-0.154927,-0.833337,-0.494635,-0.944156,0.149006,0.0409953,1.01492,-1.05054,-2.11938,-0.222232,-0.115637,-0.432134,-0.257832,-0.204209,0.444335,-0.121101,-0.635019,-0.54636,-1.60376,-0.622865,-1.62377,-0.724855,0.073377,0.29621,-0.612836,-0.0862735,-0.873642,-1.044,-0.647952,0.0166098,-0.0517107,-1.5189,-0.814608,-1.47384,-0.73766,-0.950518,0.209213,-0.951462,0.062441,0.365692,0.290491,-1.38511,-0.704245,-0.714951,1.04393,-0.741609,-1.04595,-1.23267,-1.88092,0.0756769,0.0751141,-1.46337,-0.107443,-0.265144,0.340855,-1.0844,-0.0698535,-0.703898,-0.415247,0.507349,-1.13439,-1.42608,-0.00433745,-0.273531,-1.72261,-1.16351,-1.59877,-1.27405,-0.470221,-0.335285,-0.925944,-0.659848,-0.0544846,-0.024151,-1.09902,-0.898357,-1.54664,-0.677882,-1.19522,-1.47361,-1.40596,-1.34215,-1.17581,0.165255,-0.0898232,-1.10589,-0.840351,-0.968564,-0.198944,-0.361953,-0.942166,0.118888,-0.046468,-1.46156,-0.673027,-1.57559,-0.745116,-0.477373,-1.29548,0.0332242,-1.46787,-1.20437,-1.01174,-1.4362,0.354468,-0.557679,0.154564,-1.44145,-1.53175,-1.4074,-1.17683,-1.33426,-1.13653,-0.887471,0.32108,-1.56723,-0.227804,-1.44312,-0.757139,-1.56598,-0.251831,-0.273203,0.492267,-0.399489,-0.21092,-0.940236,-0.348915,-1.44202,0.224684,0.0960851,0.308433,-1.28843,-1.20818,-0.822277,-1.08614,-1.25062,0.279285,-1.45021,-1.4047,0.0719796,-1.10541,-0.790672,-1.497,-0.670587,0.0579281,0.318292,-0.533077,-1.16883,-1.3828,0.233514,-0.748568,0.0629313,-0.444815,-0.970583,-0.655968,-0.789049,-0.0401235,-1.26441,-0.61625,-0.0117681,-1.1283,-0.366373,1.01038,-0.990959,0.0690822,-0.896402,-0.382113,0.332585,-0.395085,0.0750296,-0.0241275,-0.405174,-0.761621,-0.114931,-1.09265,0.621541,-0.143531,-0.0255695,-0.364651,0.450356,-0.207929,0.392498,-0.425087,-0.86913,-0.965482,-1.17625,-0.0586768,0.867201,-0.733631,-1.0039,0.370655,-0.600779,0.0414884,-0.321042,0.1916,-0.238083,0.489828,-1.66118,-0.916546,-0.493604,0.784774,0.676341,0.457907,-0.0432482,0.147062,0.0561628,0.156472,-0.614111,-0.218381,-0.855282,-1.21006,-1.11834,0.404231,0.100578,-0.395456,-0.798704,0.463039,0.508851,-1.66257,-1.17415,-1.32891,0.366917,-0.269581,-0.0927421,-0.218668,-0.66302,-0.776443,-1.08923,-0.858909,-0.812843,-0.295119,0.47765,-0.270223,-0.571695,0.492654,-1.13529,-0.396528,-0.0184537,-0.465018,0.116299,0.372116,-0.605044,0.856304,0.224342,-1.47757,-0.852289,0.611274,0.540924,-0.937453,-0.00772477,-1.48342,-0.232814,0.54661,0.277249,0.520393,-1.34312,0.356004,-0.963944,-0.873561,0.263014,-0.336426,0.295679,0.488086,-1.57678,-0.897395,0.192307,-1.33597,-0.138082,-0.61987,-0.54398,-0.484495,-0.607907,-0.00127096,-0.732265,-1.01567,-0.40381,-0.656592,1.05182,-0.141255,-0.165566,0.578703,0.327284,0.80443,-0.321086,-0.788628,-0.125558,-0.181118,-1.23863,0.456396,0.0560766,0.145905,-0.69426,0.0264055,0.694765,-0.953453,0.351598,-0.0658982,-0.500036,-0.618782,-0.857243,0.185535,-0.0287772,-0.0907493,-0.138149,0.667221,0.0134604,-0.551522,-0.571784,-0.30236,-1.23836,0.736836,-0.379689,0.186721,0.254102,-1.30433,-1.17624,-0.00489157,-0.199098,-1.18736,-0.779088,-0.315688,-1.29847,-0.000347918,0.297021,0.340807,-1.04725,0.186116,-0.462368,-0.274315,-1.50546,0.538247,-0.674392,0.0859098,-0.383686,0.705442,-1.16323,-1.19048,-0.607735,0.316787,-0.0210374,-0.421684,0.594154,-1.05662,-0.927458,-0.139894,-0.650566,-1.51488,-1.248,0.0843365,-0.694927,-1.21523,-0.946864,-0.828583,1.00584,-0.949879,-0.741106,-1.29397,0.325627,0.364822,-0.179401,0.465891,-0.227398,0.499536,0.0165408,0.758481,0.50935,-0.972398,-1.22768,-0.339018,0.625181,0.384134,0.206239,0.0746072,0.699753,0.33993,-0.716731,-0.612075,0.659382,-0.552151,-1.23223,-0.831518,-0.128309,-1.25079,-0.292722,-0.137252,-0.721264,0.307481,-0.058649,-0.964085,-0.0892514,-0.860799,-1.04277,-0.742884,-1.12774,0.376815,-0.761111,-1.09382,1.08511,-0.66211,-0.631702,0.574574,0.534598,0.479096,0.0938726,0.626587,-0.136817,-1.02287,-1.08722,0.250131,-0.504122,-0.872613,0.632519,-0.881726,-0.709235,-0.364894,0.0890673,0.0480605,-0.756026,-0.828886,0.311096,0.556829,0.0892399,0.495919,-0.792952,0.709708,0.258242,-1.0645,0.623332,0.15284,-0.48612,-0.777797,-0.401341,-1.10248,-0.582659,-0.921799,0.240201,0.612188,-1.36387,0.926564,-0.595306,0.733814,-1.13453,-0.148385,0.236655,-0.0213682,0.75148,0.13828,-1.20459,-0.596201,-0.122385,1.15531,-0.767227,-1.02696,0.974609,-0.859906,0.30915,0.099004,0.105371,-0.000856535,-0.753216,-0.317953,-0.0565257,0.615806,0.631284,0.231677,-1.30787,-0.519939,0.189084,-0.618203,-0.893906,-0.973579,-1.17829,-0.629379,0.286542,0.626108,0.356226,0.665012,-0.739637,0.162586,0.523118,0.347012,0.234954,-1.13709,0.500706,0.773852,-0.954968,1.58054,-0.791875,0.637127,-0.609321,0.0624509,-1.17475,-1.34889,-1.47334,-0.911166,-0.0133413,-0.232574,0.204074,0.70248,0.322132,1.36304,-0.389105,0.447065,-1.07903,-0.0380796,-0.330853,0.782991,-1.03476,0.63692,0.389444,-1.07502,-0.524886,-0.752137,-0.513582,-0.619739,0.216173,-0.815309,-0.761111,-1.27953,-0.623342,0.225272,-0.10624,0.114792,0.446442,-0.963615,0.902982,0.206229,-0.0571515,-0.664863,-0.793824,-0.697238,-0.283889,-0.724782,0.774036,0.0524765,-0.514252,-0.0580578,-0.255335,-0.569236,-1.22411,0.215525,-0.0492289,-0.537459,-0.982677,0.143789,0.41099,-0.978828,-0.884388,-0.839028,-0.365306,0.351406,0.303883,-1.54675,-0.407685,-0.761453,-0.856514,-1.40491,-0.847305,-0.328467,-0.479319,-0.587692,0.493579,-0.0323171,0.222432,0.238756,-0.855145,-1.0532,-1.40355,-0.921943,0.178562,-1.55215,-0.359768,-0.495389,-0.056174,0.415054,-0.930158,0.00372063,1.12787,-0.553042,0.930292,-0.800637,0.406958,-1.0285,-0.637698,-1.28833,-0.0172972,-0.265245,-0.72627,-0.030432,-0.64238,-0.0910342,0.44995,0.0472531,-0.679338,-0.097623,-1.00476,-1.22758,0.215447,0.140162,0.611843,-0.197617,0.684599,0.100997,-0.186419,0.241331,-0.618743,-0.173741,0.630117,-0.730853,-1.32217,0.163374,-0.24709,0.587918,0.34554,0.578001,-1.00291,-0.986665,-0.667987,-1.06422,-0.146682,-0.324676,-0.0875854,-0.946024,-0.270465,0.56985,-1.11256,-1.08507,-1.06001,0.280541,0.150087,-0.0505639,1.52482,0.51504,0.119115,-0.080754,-1.09918,-1.48773,-0.510263,-1.11962,-1.3302,-0.213419,-0.557692,0.398534,-0.470902,-1.19935,-0.613501,-0.403677,-1.56023,-0.241822,0.0123726,0.482783,-0.78701,-0.610513,-0.00866509,0.170041,-0.975438,0.164333,0.819497,-0.878867,-0.657386,-0.285421,0.679266,-0.949792,-1.13539,0.140121,-0.0471927,-0.798091,-0.250146,-0.313264,-0.86382,0.12819,-0.0171254,0.261413,-1.46619,-1.06507,0.313112,0.436801,-0.356572,0.821388,-0.334507,-0.421185,0.503685,0.056291,-0.528646,-0.513017,0.158539,-0.490137,-1.05543,-0.595906,-0.960401,-0.380565,-0.154437,0.991746,0.0332312,0.0571718,-0.0648464,0.118139,0.61067,-0.310976,0.867466,0.721258,0.990393,-0.0859166,0.178994,-0.308353,-0.37953,0.180777,-0.575464,0.719958,-0.236471,-0.855592,-0.765342,-1.08146,0.531653,0.0373434,-0.0115083,-0.711099,0.0365353,-0.0368245,-0.115273,0.651218,1.0926,0.964185,0.462541,0.196682,0.0223526,-0.713989,-0.458714,-0.17203,0.152007,-0.903026,-0.355479,0.0948543,0.192968,-1.48584,0.437943,-1.21672,-0.75484,-1.29725,-1.34888,0.418251,0.96095,-1.03375,0.774393,0.0656224,-0.600417,0.996517,0.109292,-0.46075,-0.776305,-1.8427,-0.425837,1.32967,-0.953541,-0.71043,0.599897,0.217201,-0.370377,0.23367,-1.11806,-1.24303,0.381107,-0.683022,-0.155298,-0.742545,-0.192332,-0.0499902,-0.140433,0.849473,-0.12503,-0.286958,0.3012,0.252451,0.218287,0.0498454,0.840929,0.305595,-1.06568,-0.148619,-0.326958,-0.64673,0.323755,-0.0181611,-1.29258,-0.0253476,-0.149398,-0.534811,-0.439474,-2.33016,-0.0829698,-0.224275,-0.957653,0.277995,0.660718,0.335459,0.162873,-0.581795,-1.03875,-0.747603,-1.11468,0.551884,0.144929,0.688939,-1.17738,0.927535,-0.30158,-0.83225,0.593935,-0.496166,0.264463,-0.270926,-0.482331,0.117659,-0.221194,-0.211793,-1.00773,-0.471746,-1.14199,0.219879,-0.551718,0.101503,-0.665629,-0.20953,0.624395,0.0283734,-1.19243,0.241868,-0.981679,-0.905763,0.420834,-0.301268,0.250964,-0.743845,-0.98488,0.831701,-1.26167,-0.607266,0.671805,0.500477,0.09298,0.651191,0.466327,1.29613,-0.949467,-0.284026,-0.345715,-0.320389,0.79475,-0.0800614,-0.735677,-0.87134,-1.15528,-0.555504,-0.0163226,1.14686,-1.3079,0.353531,0.0608309,-0.583483,0.353782,-0.567953,0.172497,-0.551613,-0.506813,0.459153,-0.672217,-0.869148,0.755337,-0.656729,-1.30404,-0.544899,-0.897038,-0.712984,-0.263689,-0.1706,0.372389,0.619885,0.452942,0.0150275,-0.398984,0.628224,-0.595875,0.0551308,-0.92572,-0.807267,-0.453257,-0.839961,0.224889,0.537531,-0.408147,-0.738464,-0.955412,0.920447,0.347413,-0.171678,-0.192316,-1.41351,0.18501,-0.189821,0.105325,0.587381,1.34279,-0.555232,1.05446,-0.110436,0.36145,0.146013,-0.561692,0.537378,-0.566328,0.0870573,0.0458858,0.393347,0.43679,-0.294955,0.693132,-0.827256,0.453847,-0.689574,-1.00414,1.122,0.541593,-1.56015,0.68635,-0.0471539,-0.000538242,-0.263031,0.227055,0.115783,0.642378,-1.01898,0.534746,1.20928,0.0107912,0.634007,-0.560095,-0.409169,-0.0286566,0.187239,-1.22109,-0.224124,-0.655264,-0.512771,0.653382,-1.40974,-0.371933,-0.356333,-0.608308,0.168092,0.268887,-1.05958,0.537754,-0.0571894,-0.414431,-0.343259,-0.770194,-0.029682,-0.456065,0.0333647,0.116922,0.664399,0.274272,-0.881639,0.391904,-0.886591,-0.747183,-1.02853,0.751419,0.15127,0.0527411,0.151564,-0.483368,0.651359,-1.35986,0.100858,0.732342,-0.473733,-1.42887,-0.741316,-1.17834,0.907435,-0.448427,0.474764,0.0152426,0.552789,-0.816556,0.435561,0.00111799,-0.533929,0.409902,-0.996696,-0.45105,-0.0702313,0.114147,-1.14572,-1.18815,0.485504,-0.899466,0.14077,-0.749902,0.936111,0.0149998,0.104614,-0.00691705,0.542469,-0.724168,-0.104487,-0.614996,-0.00169979,-0.157032,-0.852458,0.692045,1.07754,-0.459171,-0.820622,0.192397,-0.17578,-0.75245,-1.2617,-0.969115,-1.04757,-0.939296,-0.444322,-0.0860732,0.0838718,-0.0159793,-0.0446451,-0.802056,-0.006028,-0.521529,-0.0284885,1.16642,-0.280799,-0.451858,-0.14155,-0.654332,-0.179165,0.374602,-0.731474,0.114716,-1.26264,0.444483,-1.16435,-0.50025,0.829152,-0.434183,-1.31565,0.112992,-0.369677,-0.814092,0.42981,-0.141045,-0.590769,-0.252258,-1.10732,0.416698,-1.05187,-1.29869,-0.684132,-0.651797,0.130195,0.239939,0.656206,0.526947,-1.51057,-0.849126,0.033432,0.597438,-1.30752,0.82355,-0.382434,-0.792651,-0.218162,-0.918656,1.42406,0.0407068,0.13122,-0.24241,-0.451641,-0.178519,0.625606,-0.897909,-0.755281,-0.755833,0.321476,-0.209985,-0.935106,0.487913,-0.471786,-1.27788,0.819164,-0.81886,0.0990812,0.264147,-0.357891,0.574999,-1.02616,-0.82229,0.145348,-2.22798,-1.07977,-1.21904,-0.693307,-1.04684,0.709697,-0.931462,0.252982,-1.28726,0.569771,-0.955732,0.865349,0.708022,0.152491,0.982484,-0.710482,-0.614534,-0.270519,-0.934255,-1.13218,0.546886,-0.975825,0.776917,0.148157,-0.412469,0.123752,-0.172196,-0.239009,0.401254,-1.34049,-1.25576,1.33929,-0.342583,-1.21968,-0.788049,0.345814,-0.674203,-0.276047,-0.881332,0.737048,-0.0596415,-0.218156,0.483204,-0.682519,0.329594,-0.153403,-0.269525,0.288082,-1.08281,0.219618,-1.1225,0.925066,-2.04623,1.71076,0.811411,-0.737471,0.392953,0.264455,0.341772,-0.169039,-0.151595,0.77183,-0.811505,-0.718354,0.513678,0.624505,0.0595259,0.484535,-0.850987,0.452865,-0.831502,-0.187666,-0.748484,-1.51199,0.401612,-0.899288,-0.061647,-0.943577,-1.55343,0.421868,0.497203,-1.86901,-0.314944,1.08505,-1.17543,-0.32189,-0.444162,0.445864,-1.49899,-1.02577,-0.642504,0.459427,-1.14507,0.766678,0.505764,-0.7461,0.049664,-0.349851,-0.0698222,-0.701465,-0.494349,0.318917,-1.10055,-0.513455,0.970806,-0.12913,0.0986653,-0.36821,-1.26136,-0.148782,-1.15968,0.330198,-0.265154,-0.253808,0.365066,0.0728062,-0.351027,-1.04804,-0.459481,-0.81233,-0.295038,0.867261,-1.06338,-0.773013,-0.101846,0.366492,-0.525882,-1.37076,-0.660119,-1.20074,-0.192426,1.22676,-1.12742,0.413528,-1.37531,-1.3794,0.0441985,0.104692,-0.334078,0.157559,-1.13319,0.680051,0.673113,-1.21208,-0.302957,-0.0990065,-0.18688,-0.0893904,0.158992,-0.967881,-1.04703,-0.939915,-1.11508,-1.30565,0.0115931,-0.435156,-1.04606,-0.71481,0.364114,-0.537302,-1.13779,-0.645178,-1.10434,-0.886088,0.136756,-0.499187,-0.571422,-0.0849955,-1.27226,0.707854,-0.889151,-0.243637,0.278322,0.75536,-0.049529,-0.322304,-0.719704,-0.851283,-0.639664,-0.0780758,-0.0878152,-0.590388,0.060166,0.0617141,-0.262136,-0.596415,-0.697512,0.352377,-0.13273,-0.506481,-0.436199,0.00489385,-1.0671,-0.211657,-0.701849,0.0613237,0.787108,0.0566268,0.716343,-1.27394,0.0382238,-1.11137,-0.407028,-0.776382,-1.2695,-0.944153,-0.105204,0.0733018,-0.320583,-1.21717,-1.40684,0.823185,-0.165513,0.100203,0.1526,-0.391149,-1.21944,-0.570348,-1.05752,-0.449734,0.0555655,0.348516,-0.497388,-0.0916427,-0.370685,0.87554,-0.384721,-0.535912,-0.381353,-0.56762,-0.461247,-0.656364,-0.249849,-1.3055,-0.961498,-0.148995,-0.926393,-0.843001,-0.734808,0.202976,-0.342701,-0.756044,-0.653575,-1.05215,-1.44186,-0.452638,0.244532,-1.20596,-0.549954,-1.15236,-0.227745,-0.765153,-1.19186,-0.787472,0.410914,-0.289665,-0.796223,-1.72512,-0.680638,0.676623,0.283058,-0.542998,0.128068,-1.04034,-0.0149576,-0.529769,0.578694,0.192396,0.190412,-0.708019,-1.27392,-0.42131,-0.304717,-1.47955,0.0762415,0.729997,-0.49919,-0.308756,0.576515,0.312504,-0.276973,-0.447609,0.707844,0.655484,0.369105,0.622286,-0.709173,-1.46081,-1.24047,-0.617385,0.309192,0.592609,-1.15465,0.274316,-1.26006,0.390813,-1.39021,0.971895,-0.177723,-1.31749,-0.659587,-1.07374,-0.800707,0.525833,-0.956994,-1.19878,-0.375575,-0.560944,-0.526953,-0.463436,-1.05885,-0.937373,0.743865,-0.879909,0.232036,0.374658,-1.43796,-0.292383,0.586241,-1.0029,0.47444,0.6774,0.740168,0.0459097,0.248332,-1.47393,-0.48749,-1.26568,0.0670458,-0.797113,-1.00889,-1.09983,-0.186334,-0.326654,-1.13178,0.455854,-0.172965,-0.332809,-0.643537,-1.39008,0.327181,-0.0753955,-1.1193,0.508372,0.274584,-1.28053,-0.296172,0.529751,-1.39066,0.521892,-1.28512,-1.17267,-0.465767,-1.30106,-1.87168,-0.891245,-1.17962,0.126092,-0.453,-1.20143,-1.11884,0.016968,-0.83501,1.11328,-1.72101,-1.12584,-0.404916,-0.0426257,0.541711,0.0784535,0.118621,0.10467,-0.280867,-1.0594,-0.432643,-0.459964,-1.47985,-1.60969,-0.855308,-0.39002,-0.0176459,-0.708362,-0.139299,-1.17202,-0.416893,-0.0131737,-0.315701,0.212109,-0.573598,0.859524,0.0106175,-0.594635,0.0503384,0.602683,-0.667497,0.230719,-1.05247,-1.36752,-0.54873,0.464201,0.297155,-0.264973,0.128772,-0.639044,-0.458376,-1.29592,0.130405,-0.236892,-1.13645,0.419889,-1.06763,-0.0833461,-0.749029,0.0697028,0.0490863,-0.109299,-0.341017,-0.758207,-0.580706,0.0958895,-0.917239,-1.36219,-0.695202,0.514554,0.0867677,0.0605895,0.475721,-0.839072,0.048821,-0.360359,-1.37824,0.316979,0.0716631,0.489245,-1.53137,-0.64157,-0.0952626,0.547688,-1.35805,0.632253,0.0840892,-1.01431,-0.336389,-0.82249,0.516818,-0.865648,0.184885,-1.00874,-0.0824757,-1.0837,-1.62623,0.150816,-1.33136,-0.495479,0.82638,-1.30401,-0.621598,-0.447085,-0.969361,0.69965,0.201843,-0.895097,-0.110857,0.19322,0.563223,-0.0949019,-0.813356,-0.135166,-0.282663,-1.23607,-0.550121,-0.99899,-0.554909,0.291613,-0.900052,-0.932471,-0.723195,0.92748,0.214957,-0.238891,-1.25657,-0.265186,-0.349552,-0.983663,1.11957,-0.42959,-0.864636,-1.05598,-1.3707,-0.243132,-0.986591,1.31342,0.143272,0.370291,-0.225643,0.658916,-0.281122,0.276083,-0.654099,-1.64138,-1.1455,0.126827,-1.03225,-0.56845,-0.749191,0.122297,0.10109,0.303541,-0.994196,-1.09808,-0.388034,-0.603185,0.629976,-0.678443,-0.0191347,0.327503,0.493064,-1.41629,-1.234,0.136148,-0.173494,-0.848951,0.0606588,-0.920277,-1.29675,-0.575762,-1.15417,-0.151006,-0.709746,-0.69658,-0.349158,-0.529353,-1.10294,0.291211,0.881595,1.69251,-1.14709,-0.47669,0.353301,0.0112233,-1.42187,-0.353303,-0.774629,0.881242,0.542604,0.236139,0.500246,-0.517044,0.272946,0.332635,-0.341269,0.0441246,-1.11769,-0.877417,0.0170085,-0.792469,0.116757,0.330345,0.175186,-1.43703,-1.07366,-0.918805,-0.496837,-0.90941,-0.675854,-0.622828,-0.686449,-0.33181,-1.20582,-0.744874,-0.910958,-1.10001,0.243364,-0.957585,-1.3068,-0.0572564,-0.910761,0.778514,-0.553086,-1.10763,-0.223836,0.59391,-0.150694,0.77926,-1.09396,-0.819656,-1.33828,0.497227,-1.20368,0.088898,0.476464,-0.696134,-0.812678,-0.597287,0.411592,0.35052,0.0971382,-0.897144,-0.978318,-0.189783,-0.532527,-0.512971,0.420899,-0.660872,0.398997,0.659848,0.20331,-0.981864,0.0378144,-0.572249,-0.779928,-0.192824,-0.809777,0.122518,-0.82652,-0.527708,-1.02085,-0.158385,-0.619624,-0.890893,-0.501114,-0.286232,-0.240959,0.015734,0.381717,-0.33065,-0.689805,-0.87586,-0.248131,0.0220612,-0.847275,0.132508,0.299658,-0.766944,-0.664265,0.695981,-0.422996,-0.728127,1.16573,-1.6003,-0.109818,-1.15933,0.241573,-0.0135251,-1.06598,-0.987711,-0.930193,-0.666523,0.188291,0.0166485,0.0922299,-1.97596,-1.28127,-1.26659,-1.13723,0.341147,-0.463626,-0.607646,-1.54331,0.550525,0.778998,-0.657197,1.12018,0.324222,-0.0813683,-0.602841,0.0928549,0.0199192,-0.451535,-0.116664,0.346367,0.886477,0.558249,0.13004,0.105478,-0.785414,0.353048,-1.59968,-0.931952,-0.110149,0.262918,0.112383,0.388974,0.141171,0.359552,0.343255,-0.683412,-0.60868,-0.717667,-0.116232,-1.22044,-1.34009,0.174675,-0.961021,0.750627,-0.174677,-0.418488,-0.295567,-0.534877,0.292016,-0.998821,-0.982365,-0.333605,-1.04897,0.332669,-0.7311,-0.967179,0.0218533,-0.63368,-0.583431,-0.674627,-1.30751,-0.224065,-0.677341,0.488687,-1.02077,0.374872,-1.05735,-0.680073,-0.679176,0.186171,-0.591769,-0.806553,0.110961,-0.334134,-0.767814,-0.67283,0.578679,-0.101001,-0.0611668,-0.174072,0.551708,-1.21131,-0.620003,-1.09379,0.352816,-0.149269,-0.493087,0.0784416,0.192724,0.562018,0.324519,0.0818419,-0.532376,0.609203,0.334711,-0.617062,0.135836,0.445145,-0.257892,0.43717,0.636858,-1.3273,-1.14997,-0.606105,0.348599,-0.785656,0.176203,-0.40649,0.834869,-0.361724,-0.987623,0.376835,0.00273124,-0.532509,1.20943,-0.0454062,0.579091,-0.432682,-0.559033,0.142314,-0.565337,0.830818,-0.544504,-0.452333,0.235649,-1.17476,0.0376363,-0.512689,0.304944,-0.930565,-0.186655,-0.219469,-0.389467,-0.574107,0.762006,-1.03116,-0.0232837,-0.154071,0.345898,0.111858,-0.31243,-1.11895,-0.252596,1.05207,-0.046751,-0.232993,0.0893517,-0.838279,0.113299,0.117362,0.156562,0.593131,0.261487,-0.716486,-1.11145,-0.597235,-0.0719345,0.611024,0.142309,-0.756607,-0.47996,-0.894906,0.279488,0.127702,-0.187789,-0.275462,0.687126,-0.868434,-0.298083,-0.0153199,0.557457,0.411514,0.111981,-0.817627,-0.0288106,0.730554,-0.352938,-0.594546,-0.874905,-0.726429,-0.0348139,0.686564,-0.776573,-0.175868,-0.687692,-0.54222,0.922764,-0.19222,-0.310169,0.513691,0.265004,0.842624,-0.920316,-0.0224874,-0.127659,0.205772,-0.0890377,-0.532876,0.619737,0.225941,0.335118,0.0575305,-0.301983,-0.512394,0.269306,-1.05538,-0.631877,-0.675849,-0.670223,-0.233001,-0.243444,-1.02438,0.281676,0.352879,0.00576613,0.411252,-0.427893,-0.418524,-0.954221,0.34459,-0.166486,-0.991824,0.248903,0.335963,0.455535,-1.14639,-0.791438,-1.27299,-0.865142,-0.79255,0.0373836,-0.746466,1.1064,-0.353077,-0.190547,0.144857,-0.553523,0.92769,-0.748953,0.208963,-0.63302,0.131977,0.598293,0.51654,0.0446442,0.328351,-0.441406,0.117885,-0.232205,0.276489,0.368212,0.333011,0.23274,-0.590347,-0.103952,-0.357531,-0.644062,0.0788814,0.0632672,-0.0115618,0.909623,-0.481482,0.0426909,-0.518181,0.994042,-1.12821,-0.454079,-1.40609,0.173399,-0.333843,1.15438,-0.84024,-0.94445,0.592888,0.228866,-0.258303,0.544949,-1.00166,-0.480118,0.697786,-0.809812,-1.04233,0.252672,0.615833,-0.424042,0.775789,0.566505,-0.539335,-0.176894,-1.30983,-0.960608,-0.232511,-0.00369217,0.0934401,-0.56842,-0.696558,-0.140111,-0.17143,-0.0705744,0.244106,0.568604,-0.916804,-0.148263,0.491336,-0.597769,-0.928764,-0.115176,0.397026,0.815598,0.322973,0.0916462,-0.317198,0.688143,-0.816339,0.108184,-1.29636,-0.859556,-1.03765,0.306384,-0.159098,-1.13464,0.311219,-0.209829,0.341243,-0.102924,-0.426019,-0.102857,-0.486817,0.385451,-0.913563,0.0423324,-0.474045,-0.356239,-0.944362,-1.3253,0.11771,0.492635,-0.242109,-0.13501,-1.04644,-0.412893,-1.26142,0.530372,1.00244,-0.774659,-1.12454,1.12019,-0.0859811,-1.1649,0.47749,-1.20102,-0.486659,-0.316101,-0.97178,0.469283,0.569457,-0.228971,-0.194863,-1.07192,-1.39539,0.983823,0.0724374,0.105122,-1.24935,1.11022,0.0527172,0.147258,-0.377241,-0.825438,-0.532001,-0.458093,-0.718351,-0.842032,-1.25497,-0.387888,0.0931189,-0.84347,-1.03052,0.556429,-0.726095,0.513247,0.586505,-0.142334,-0.969054,0.866476,-0.223706,0.770879,-0.00359771,0.944843,1.11104,-0.0793733,-0.420239,0.274818,0.0778365,-0.529464,0.330575,-0.640221,-0.401784,-0.894461,-0.988704,-0.120154,0.378873,-0.0448321,1.0073,1.04425,0.0896136,-1.16675,0.825354,-1.00759,0.662961,-0.200197,0.539394,1.1718,0.598438,1.37566,1.1058,-0.938534,0.65066,-1.08219,-1.01394,0.681885,-0.130564,-0.168802,