-0.671248,-0.0343312,0.259932,0.0421785,-0.284651,0.779084,0.75149,-0.766412,-0.816541,-0.505383,0.326536,0.474378,0.155661,0.724744,-0.0609912,0.336943,0.551868,-0.60081,0.433398,0.977412,-0.485604,0.116629,0.209077,-0.376787,-0.837347,0.883958,0.188361,-0.888287,-0.0157409,0.448867,-0.331801,0.313011,-0.585464,0.928132,-0.644811,0.129885,0.707216,-0.89332,0.363472,0.890675,-0.398703,-0.309991,0.365053,0.756958,-0.585248,-0.695938,0.0939001,0.96662,-0.296749,-0.472702,0.944032,0.217648,0.643928,0.153109,0.840861,0.806581,0.0370663,0.0292222,0.918293,-0.978675,-0.52191,-0.413507,0.334336,-0.107374,-0.485376,0.689526,-0.97749,-0.77816,0.796205,0.385983,-0.887485,-0.602498,-0.924009,0.477568,-0.84554,-0.509257,0.781629,0.24836,-0.542637,-0.51512,0.775658,-0.598605,0.702528,0.419586,0.554504,0.543389,0.226166,-0.40843,-0.427389,0.144459,-0.387105,0.050701,0.730952,0.947231,0.943327,-0.754424,0.636757,0.965837,-0.532583,0.432962,0.35182,-0.420069,0.830465,0.427811,-0.942501,0.984924,0.918554,0.839128,0.233284,-0.624083,-0.675991,0.00894219,-0.222688,-0.973463,-0.571472,-0.668184,0.569926,0.654694,-0.0766142,-0.857463,-0.200847,0.536281,0.193238,-0.469895,0.483513,0.136565,-0.224319,0.12027,0.102402,0.243098,-0.446768,-0.545779,0.823029,-0.616303,0.882032,0.880528,-0.631379,0.800587,0.719657,0.601905,-0.823496,-0.956335,-0.389153,-0.0461836,-0.929798,0.0393749,0.285632,0.640128,-0.305931,-0.790982,0.782665,0.493222,0.745299,-0.0240971,-0.976673,0.228812,-0.887532,-0.200992,-0.650919,0.214869,-0.957894,-0.0976866,0.669091,0.865135,0.28601,0.551123,0.745664,0.654631,0.35171,0.46532,0.256536,0.528214,0.508986,0.867383,-0.51797,0.579187,-0.0932422,0.767662,0.219315,0.600827,0.976681,0.00197953,0.0940485,0.72198,0.977882,0.117376,-0.0492081,-0.90965,0.916384,0.299873,0.30522,0.95849,-0.797813,-0.0256897,0.823625,0.488197,-0.474567,0.569289,0.142827,0.877143,0.0346096,-0.600637,0.405356,-0.456405,-0.733254,0.887386,-0.877218,0.173504,0.655049,0.342097,-0.22567,0.63173,-0.655923,0.868379,0.35371,-0.678041,-0.0142456,-0.695499,-0.587691,-0.0978618,0.604375,0.717529,-0.139372,0.806561,-0.308161,-0.315746,0.294758,0.217272,-0.746457,-0.562415,0.0944151,0.288152,-0.163051,-0.500229,0.831748,0.103695,-0.612842,0.95453,-0.722802,-0.957793,0.296627,0.0515288,0.673936,0.640704,-0.0800923,0.0276457,0.962663,0.905662,0.332147,-0.625028,-0.1922,-0.063478,-0.907499,0.668429,-0.256917,-0.21566,-0.647318,-0.962158,-0.998388,-0.393775,-0.524573,0.0960272,0.894377,0.312376,0.595799,0.726125,-0.58393,0.982956,0.680655,-0.306731,-0.974837,-0.0227183,0.744797,0.699099,-0.382015,-0.335295,-0.273255,-0.419352,-0.429633,-0.941108,-0.0443802,0.378168,-0.00458589,0.0481205,0.0465962,0.738498,0.83246,0.399278,0.776339,0.834072,-0.994497,-0.748234,-0.0699004,0.899881,0.564142,-0.474102,0.626006,0.980212,-0.491145,0.30666,-0.32652,-0.465982,-0.716058,-0.581722,-0.766883,-0.0980727,0.0829829,-0.0401381,0.482575,0.65335,0.018754,-0.561805,0.0315179,-0.985832,0.486315,-0.921886,0.752666,0.318776,0.477392,0.529005,0.152848,0.482896,0.780771,-0.917052,0.382776,0.344913,-0.391154,0.00878205,0.325125,0.117701,-0.684558,0.998605,0.651718,-0.400616,-0.583117,0.884835,0.501312,0.499866,-0.155303,-0.0161132,0.153216,0.863451,0.422082,-0.815266,0.877619,-0.0916028,-0.737152,0.630285,-0.772827,0.74024,0.15929,0.380021,0.223136,-0.0599395,0.462969,-0.394087,-0.715027,-0.928185,0.614695,0.610098,0.189515,0.930137,0.608703,-0.158766,-0.470478,-0.974414,-0.273931,-0.969167,0.525452,0.570766,0.01472,-0.321332,0.434217,-0.563198,-0.136598,0.311836,0.345199,0.12625,-0.0578791,0.572372,-0.13351,-0.898589,-0.0476068,-0.910374,0.041471,-0.584638,-0.304461,0.326444,-0.512823,-0.689766,-0.0634579,0.676692,-0.759629,-0.454755,-0.482074,-0.230108,-0.429169,0.243995,-0.199275,-0.903718,-0.185239,0.815445,-0.22505,-0.751022,-0.747753,0.638352,0.560814,0.597446,-0.235399,-0.497065,0.169818,0.631091,-0.395655,-0.877788,0.720718,0.645816,-0.462426,-0.583743,-0.0277394,0.0247504,-0.27351,0.908803,-0.298557,-0.0331392,-0.545952,0.219369,0.736753,0.0248785,-0.536637,-0.462522,0.121161,0.278124,-0.647076,0.896111,0.527102,-0.394829,0.534463,0.0879159,-0.797383,-0.700936,0.590851,0.372436,0.930156,-0.804804,0.494647,0.650873,0.841012,-0.967779,-0.93287,-0.186727,0.0569712,-0.20638,-0.277924,0.758414,0.760481,0.176123,-0.0222175,0.497234,-0.798998,0.441146,-0.965288,0.322163,-0.28073,-0.612364,0.218274,-0.753628,-0.00719271,-0.247263,0.334288,0.195425,0.0518007,-0.074861,-0.432139,-0.0180437,0.120335,-0.937492,-0.367171,-0.0386528,-0.905271,-0.300041,0.77462,0.1517,0.493579,-0.503304,-0.0898863,0.25406,0.672819,0.887896,-0.248706,0.873821,0.329042,-0.213994,0.195983,-0.951687,0.173642,-0.585743,-0.705315,-0.83355,0.166994,0.628973,0.361874,-0.781206,-0.445888,0.929735,0.200751,0.674447,0.992243,0.83358,-0.364206,-0.913029,-0.466461,-0.589586,0.238671,-0.972881,-0.0928901,-0.851215,0.281179,-0.420071,-0.963319,-0.967527,-0.546251,0.365723,-0.181521,0.649732,0.414036,0.992121,-0.936011,0.708721,-0.841429,0.230983,0.337694,0.520445,0.449777,0.891806,0.45018,-0.349472,0.566253,0.442423,-0.515892,-0.797952,0.529394,0.0176473,-0.387538,-0.231935,0.0447659,0.519572,-0.0831501,-0.674055,-0.900499,-0.046469,-0.641583,-0.44675,-0.680746,0.176896,-0.797018,0.73329,0.169017,-0.733028,0.442011,0.327588,0.497955,-0.220294,-0.151967,-0.052268,-0.328488,-0.701787,0.59826,-0.762235,0.740636,-0.917632,-0.560187,0.27003,0.100015,0.0522749,-0.961905,-0.855219,-0.428153,-0.0450555,-0.529274,-0.328653,0.908475,-0.170857,0.224597,-0.77227,-0.993961,0.427579,0.96102,0.175056,0.694551,0.403032,-0.497356,0.192506,-0.817263,0.350676,-0.859762,-0.145751,0.648889,0.738498,0.0920143,0.389525,0.820866,0.531827,-0.340445,-0.0791194,-0.415898,-0.302351,0.0656616,0.155949,0.652594,0.536387,0.827296,0.561069,-0.63447,0.0518934,0.788799,-0.628431,-0.520527,0.749819,0.546624,-0.825976,0.152851,-0.950732,0.36653,0.335588,0.399944,0.506768,-0.810163,0.0488337,0.245265,0.281852,-0.561641,0.0661308,-0.186321,0.0979132,0.987011,0.397781,0.795562,0.0526729,-0.44627,0.448156,-0.41094,-0.618974,0.00922498,-0.04541,0.432919,-0.201976,0.326159,0.912392,-0.452157,-0.127217,-0.913584,0.700694,-0.0779493,0.452946,0.0362823,-0.678005,-0.0402867,0.22612,0.370829,-0.795021,-0.492029,0.809187,0.271109,0.32165,-0.0928994,0.258121,-0.280569,-0.297337,-0.689206,0.27316,-0.849181,-0.100146,0.654186,0.160044,0.854444,0.0871055,0.958068,0.180602,-0.000502564,-0.494089,-0.946615,0.0859133,-0.793395,-0.0245643,-0.461141,0.242887,0.297431,0.498572,-0.530993,-0.331741,0.703551,-0.0230218,-0.522553,-0.0253399,-0.701372,0.384547,-0.767219,0.0180591,-0.91279,-0.456426,-0.70878,-0.761971,0.443428,0.945406,0.398073,0.297872,0.0325113,0.35614,-0.521526,-0.967991,0.862051,-0.468141,0.117922,-0.931344,0.507294,0.656781,0.311543,-0.195275,0.155353,0.78055,0.472984,-0.141096,-0.242472,0.950431,0.833564,0.0561567,0.334978,-0.933655,-0.925784,0.422188,-0.390081,-0.634565,0.660217,-0.946653,-0.689159,0.0582897,0.351219,0.343352,-0.58557,0.829692,0.375361,-0.723519,-0.638449,-0.506717,-0.654863,0.868845,-0.849936,0.656681,-0.32643,0.305418,0.437231,-0.853445,-0.835678,-0.80524,-0.903014,0.997886,0.250916,0.431964,-0.935769,0.325132,-0.145848,-0.32585,0.690567,-0.485631,-0.272503,-0.998591,0.572659,-0.921284,0.344761,0.987089,0.908408,-0.279878,-0.73643,-0.73004,0.213406,-0.391293,-0.861195,0.36347,-0.734612,-0.187625,-0.671248,-0.0343312,0.259932,0.0421785,-0.284651,0.779084,0.75149,-0.766412,-0.816541,-0.505383,0.326536,0.474378,-0.671248,-0.0343312,0.259932,0.0421785,-0.284651,0.779084,0.75149,-0.766412,-0.816541,-0.505383,0.326536,0.474378,0.155661,0.724744,-0.0609912,0.336943,0.551868,-0.60081,0.433398,0.977412,